%YAML:1.0
opencv_ml_svm:
   svmType: EPS_SVR
   kernel:
      type: LINEAR
   C: 1.0000000000000000e-002
   p: 1.0000000000000001e-001
   term_criteria: { epsilon:1.0000000000000000e-003, iterations:1000 }
   var_count: 26676
   sv_total: 1
   support_vectors:
      - [ 1.22182490e-003, -1.33874116e-003, -4.27895691e-003,
          4.28646943e-003, 1.35419145e-003, 7.24163326e-003,
          3.20857624e-004, 6.27764687e-003, -6.48583751e-004,
          5.23672346e-003, 3.21730576e-003, -3.17378645e-003,
          2.82847206e-003, -3.96251725e-003, 1.47907378e-003,
          1.47499784e-003, 5.29421167e-003, 2.88146821e-005,
          -1.97606161e-003, -9.11783334e-003, -9.11523961e-003,
          -9.73085465e-004, 3.69821279e-003, 6.86249835e-003,
          -5.33836242e-003, -2.11149501e-003, -1.75389869e-003,
          -3.09793791e-003, -6.02925289e-003, 3.34692234e-003,
          2.50811805e-003, -6.95562409e-003, -1.51910912e-003,
          -1.24290842e-003, 4.58538858e-003, -4.82115382e-003,
          8.32379330e-003, 8.74584250e-004, -4.20409627e-003,
          -1.38432300e-003, -7.33828032e-003, -2.79406365e-003,
          -1.47481344e-003, 3.53868562e-003, 3.49699915e-003,
          -5.16989385e-004, 8.36239720e-004, -1.82391948e-003,
          1.73557841e-003, -2.83741765e-003, 3.51913529e-003,
          3.28276795e-003, 3.56022385e-003, 2.73442711e-003,
          -1.46649242e-003, -2.48838449e-003, 8.90861033e-004,
          5.52058686e-003, -5.81709901e-003, -6.52304711e-003,
          -2.24956125e-003, 1.87089038e-003, -1.79346756e-003,
          -1.60708546e-003, 2.51647667e-003, -1.70342473e-003,
          2.27687578e-003, -3.79793812e-003, 9.64659703e-005,
          -1.41087384e-003, 5.42141777e-003, 1.57327144e-004,
          -3.06727877e-003, -2.68855039e-003, -2.58059194e-003,
          4.93671326e-003, 3.65537149e-003, 4.09745378e-003,
          -1.16226787e-003, -2.93797202e-004, 4.44482174e-003,
          1.25118834e-003, -3.83861200e-003, -6.09197246e-004,
          5.44513296e-003, 3.38288723e-003, 4.11417522e-003,
          -7.36189587e-003, -5.86204883e-003, 1.23461068e-003,
          -2.45014089e-003, 2.51866085e-003, -2.34605256e-003,
          4.56801569e-003, -2.99711566e-004, 7.64512515e-004,
          -4.49896371e-003, -2.51414650e-003, -7.25175836e-004,
          -7.06583320e-004, -1.04349572e-003, 8.62380024e-004,
          4.18246677e-003, 3.31869349e-004, -3.29996255e-004,
          -7.38753704e-003, -5.90301119e-003, -6.65883208e-003,
          3.39542003e-003, -2.78717093e-003, 9.48949382e-005,
          5.03555778e-003, 2.31314241e-003, 2.88583874e-003,
          -4.08988306e-003, -1.72999350e-003, -1.53678516e-003,
          -7.85485143e-004, -3.13909346e-004, -3.41735827e-003,
          4.00895439e-003, 1.54636975e-003, 4.36628284e-003,
          -1.10242376e-003, 9.10423289e-004, -8.32347607e-004,
          2.99545027e-005, -2.07722886e-003, 1.25717791e-003,
          7.77135044e-003, 1.25449034e-003, 3.82898422e-003,
          -6.11607160e-004, 1.03283208e-003, -4.60136123e-003,
          -1.45326310e-003, -2.02867133e-003, -2.69963965e-003,
          6.39183121e-003, -1.48128532e-003, -5.82655892e-004,
          -5.64219616e-003, -2.24418263e-003, -4.23316937e-003,
          2.10656575e-003, -8.35469342e-004, -3.56797827e-003,
          4.37525706e-003, 4.17616777e-003, 5.82209136e-003,
          1.22266333e-003, -1.15437410e-003, -8.79907457e-004,
          4.91818739e-003, -1.49968173e-003, -6.56684861e-003,
          4.45792312e-003, 5.89511357e-004, 5.61294612e-003,
          -9.64868756e-004, 1.64945850e-005, -1.21220446e-003,
          1.67972140e-003, -1.59777689e-003, 2.01143418e-003,
          1.09866122e-002, 3.19247134e-003, 1.11868849e-003,
          -6.30491646e-003, -7.28085637e-003, -3.74207296e-003,
          2.40167114e-003, 4.28168860e-004, -1.92704750e-003,
          6.25472143e-003, -4.85756015e-003, 2.38772976e-004,
          -6.45600306e-003, -3.74482409e-003, -3.29527864e-003,
          6.57132175e-003, 5.34705259e-003, -2.82112556e-003,
          8.21454730e-003, 5.21303574e-003, 2.51680240e-003,
          -4.43828525e-003, -3.84586980e-003, 1.87094952e-003,
          4.52771131e-003, 2.86074239e-003, 3.09682451e-003,
          8.86522979e-003, 2.39284593e-003, 1.02586346e-003,
          -3.64840310e-003, -8.02934356e-003, 9.85011691e-004,
          1.95187225e-003, 2.14717141e-003, -2.92535871e-003,
          3.67404008e-003, -1.49442314e-003, -1.54388126e-003,
          -8.06505792e-003, -3.92141053e-003, -2.88221636e-003,
          -7.94861349e-004, 2.16797023e-004, -3.95053159e-003,
          3.75801371e-003, 7.26674974e-004, -3.12338560e-003,
          -6.61209133e-003, -4.53646062e-003, 2.36544598e-004,
          1.45606278e-003, -6.17211685e-004, 6.30114751e-004,
          3.74387484e-003, 4.59818542e-003, 3.73506756e-003,
          -2.79930211e-003, -6.68384787e-003, -1.64219935e-004,
          1.38533814e-003, 9.96261835e-004, -2.88803480e-003,
          5.63485781e-003, 4.31641098e-003, 4.15899884e-003,
          -6.34532189e-003, -5.37762698e-003, -1.45515602e-003,
          8.82769178e-004, 5.14105707e-003, 1.45354902e-003,
          4.81614983e-003, 1.44492171e-003, -1.37693365e-003,
          -6.36670785e-003, -4.69482597e-003, -1.75241113e-003,
          -2.80884560e-003, 5.77866798e-003, 4.20701364e-003,
          7.39832176e-003, 1.93774630e-003, -4.31974605e-003,
          -1.15222754e-002, -5.22171264e-004, -3.62392422e-003,
          5.27627114e-003, 2.79535865e-003, -3.26706399e-003,
          3.82838375e-003, 3.28665366e-003, 1.89666194e-003,
          -5.60885388e-003, -7.95773522e-004, 5.96826198e-003,
          8.19737744e-003, 3.35374917e-003, -4.69890749e-003,
          2.83745769e-003, 2.74876575e-003, 6.16060197e-003,
          -4.36003041e-003, -2.55513703e-004, 9.51839704e-003,
          -1.21110177e-003, 3.96816200e-003, 2.71221320e-003,
          5.23625361e-003, -2.29997953e-004, -2.65965192e-003,
          -1.07562933e-002, -4.81625611e-004, -1.50406791e-003,
          1.63827266e-003, 7.59234943e-004, -4.24290914e-003,
          2.28498620e-003, 4.11450979e-004, 2.74599413e-003,
          -4.78890678e-003, -5.40053297e-004, -2.16761371e-004,
          4.35602851e-003, -6.51675509e-004, -6.70790067e-003,
          8.21670110e-004, 3.69153055e-003, 6.00752700e-003,
          -3.57414666e-003, -5.55489270e-004, 3.11486050e-003,
          1.11059949e-003, 1.00616273e-003, 3.60546583e-005,
          6.60827197e-003, 6.79040980e-003, 9.25434567e-003,
          3.19732586e-004, 3.99698177e-003, 1.18464744e-003,
          5.00645139e-004, -4.15890338e-003, -5.44413831e-003,
          3.74700734e-003, 9.78683238e-004, 2.30245548e-003,
          -5.69882942e-003, -5.20339981e-003, -5.28545491e-003,
          -3.03556822e-004, -1.24649715e-003, -3.11768870e-003,
          6.40049065e-003, 2.85705290e-004, 2.44786264e-003,
          -6.27668295e-003, 3.29337665e-004, -5.04466053e-003,
          -4.76342306e-004, 8.06259864e-004, 1.03210355e-003,
          6.16710400e-003, 3.90673103e-003, 5.58515079e-003,
          -1.86801679e-003, -8.74603866e-004, -8.80081730e-004,
          1.09448913e-003, 3.95026617e-003, 2.33356631e-003,
          4.25073132e-003, -3.86209926e-004, 7.25444173e-003,
          -1.31394248e-003, 7.45157071e-004, -1.26990315e-003,
          2.61776993e-004, -3.15932011e-005, -5.08978614e-004,
          -3.78964498e-004, 1.22021105e-004, 3.73484311e-003,
          -2.29824404e-003, -8.73065321e-004, -4.48441925e-003,
          6.21455081e-004, 1.29011541e-003, 1.45862170e-003,
          3.76014446e-004, -4.24137432e-003, 3.41665465e-004,
          1.46562187e-003, 2.45199003e-003, -1.09415560e-003,
          -3.98007175e-003, -1.14962854e-003, 3.15650296e-003,
          8.02278891e-003, 6.00515399e-003, 8.03058688e-003,
          1.19912392e-003, -2.16989685e-003, -4.34540259e-003,
          -5.28627122e-003, 5.52077545e-004, 5.10653714e-003,
          9.25848447e-003, 8.93708039e-003, 8.90181400e-003,
          -1.40763680e-003, 1.65807793e-003, -9.80316545e-004,
          -2.35701236e-003, -9.50282440e-004, -1.73635781e-003,
          3.69564258e-003, 3.28516122e-003, 3.49959312e-003,
          2.74238898e-003, -3.40240751e-003, -3.39826872e-003,
          -6.34163572e-003, -1.79384963e-003, -3.23840533e-003,
          2.73728464e-003, 4.32175677e-003, 7.53230136e-003,
          -2.17871624e-003, -1.09948288e-003, -8.59920960e-003,
          2.20667315e-003, 4.59643221e-003, 2.76429788e-003,
          3.82110849e-003, 1.02329627e-002, 6.15683896e-003,
          -9.28835128e-004, 1.34412129e-003, 4.10875818e-003,
          -1.29643327e-003, 2.69567198e-003, -1.28018903e-003,
          5.64617338e-003, 4.76876460e-003, 4.13168501e-003,
          -3.43235675e-004, -1.75410870e-003, -2.56477768e-004,
          -2.46878807e-003, 4.75367793e-004, -1.57529954e-003,
          1.17772794e-003, 3.69440042e-003, 5.78987924e-003,
          -2.70560826e-003, 9.00259067e-004, -1.72534899e-003,
          -3.96284182e-003, 4.07557422e-003, 3.36769299e-004,
          2.65656319e-003, -1.42435823e-003, 1.60566950e-003,
          -3.50793893e-003, -2.60302634e-003, -4.33218386e-003,
          -1.51536893e-003, 2.99856951e-003, 1.31597091e-003,
          1.44118874e-003, 3.00965016e-003, 1.84866693e-003,
          -1.91380770e-003, -4.09707846e-003, 2.76538107e-004,
          2.43469933e-003, 6.78257877e-003, 4.65530949e-003,
          5.93506265e-003, 2.74792314e-003, 3.55185592e-003,
          -3.97599861e-003, -3.20722116e-003, -9.55466123e-004,
          -3.57794808e-003, -6.95575087e-004, 2.42544673e-004,
          1.52648048e-004, 1.11953856e-003, 2.63232482e-003,
          -1.18954014e-003, 5.69388270e-004, 1.60374434e-003,
          1.05317193e-003, -4.77108778e-003, 1.77609199e-003,
          3.78166209e-003, 2.05130153e-003, 3.67378024e-003,
          3.90037341e-004, 2.01542582e-003, -1.84149470e-003,
          1.36704114e-003, 3.92129924e-003, 1.91819004e-003,
          7.01515470e-003, 3.06504383e-003, 6.52174349e-004,
          -6.34738524e-003, -4.35383804e-003, -1.53148174e-003,
          -2.46276241e-003, 3.66424699e-003, 1.28514646e-003,
          1.10188760e-002, 4.11493704e-003, 3.65215098e-003,
          -4.31304192e-003, -2.25629914e-003, 2.12477680e-004,
          6.42820378e-004, -3.19742691e-003, -4.05597175e-003,
          6.27632579e-003, 7.07100797e-003, 1.56145974e-003,
          -6.09799195e-003, -4.23147483e-003, -6.42133236e-004,
          -1.67491636e-003, 4.51282714e-004, -2.63389247e-005,
          9.64951701e-003, 5.86658623e-003, 6.31538546e-003,
          -7.21050147e-003, -1.88751461e-003, 3.44865164e-003,
          -4.05554922e-004, -1.79831288e-003, -5.72793419e-003,
          6.10687304e-003, 4.17967653e-003, 2.18495377e-003,
          -5.39981341e-003, -5.94145851e-003, 1.06063613e-003,
          3.47072887e-003, 4.62111970e-003, 2.61131674e-003,
          5.88005921e-003, 1.95380300e-003, -8.72149190e-004,
          -1.28405569e-002, -1.09088197e-002, 1.15823757e-003,
          -2.38987594e-003, 1.69678926e-004, -1.90879719e-003,
          9.72923823e-003, 7.33343745e-003, 6.95432676e-003,
          -8.76091421e-003, -4.82753338e-003, 7.88453093e-004,
          6.33509597e-004, 1.21001026e-003, -2.31433334e-003,
          9.66580305e-003, 1.36555592e-003, 5.07808942e-003,
          -6.04277290e-003, -4.61231312e-003, 5.84443624e-004,
          4.75975312e-003, 6.52350439e-003, 1.41009944e-003,
          5.28206816e-003, 2.69537489e-003, 2.46634270e-004,
          -1.06837032e-002, -4.74385079e-003, 2.17156927e-003,
          -6.37760211e-004, 1.57713090e-004, -3.18098255e-003,
          6.60469430e-003, 1.28095751e-004, 2.06513170e-004,
          -4.76119714e-003, -2.50111101e-003, 1.84431078e-003,
          1.38383394e-003, -8.33283528e-004, -1.63347716e-003,
          6.47139456e-003, 1.92513200e-003, 5.19644329e-003,
          -1.71959423e-003, -1.70423009e-003, 5.42572839e-003,
          -2.28031934e-003, 5.39595087e-004, 1.32937392e-003,
          6.85145240e-003, -3.57632729e-004, 5.56074840e-004,
          -4.41751583e-003, -2.06199032e-003, 5.30047168e-004,
          -1.60573155e-003, -3.00252484e-003, -3.05626541e-004,
          3.30461119e-003, 1.69069518e-003, 2.03495519e-003,
          2.52147322e-003, 1.24647268e-004, 8.31729732e-004,
          -1.68631610e-003, -4.16310644e-003, -7.80572533e-004,
          3.23659927e-003, -5.15617989e-003, 4.75355511e-004,
          2.31427746e-003, 2.13679275e-003, -2.34272028e-003,
          -3.26719228e-003, 1.45685452e-003, 5.30837057e-003,
          9.32292826e-003, 3.96550354e-003, -3.63488478e-004,
          5.00644674e-005, 1.31024397e-003, 3.93220194e-004,
          -1.60332641e-003, 5.39263943e-003, 2.67521129e-003,
          6.45379163e-003, -7.69496080e-004, -4.53127269e-003,
          -2.84848502e-003, 1.46635657e-003, -1.63045584e-003,
          3.76996933e-004, -4.12742404e-004, 3.09113041e-003,
          4.22767317e-003, 1.79669747e-004, 2.67786352e-004,
          5.20414615e-004, 8.42037436e-004, -2.10729754e-003,
          2.78403662e-004, 2.16337829e-003, 2.77516874e-003,
          1.21788093e-004, 6.62889157e-004, 4.08422761e-003,
          -2.23193155e-003, -1.60882203e-003, 1.91602472e-003,
          2.32726312e-003, 6.48625009e-003, 6.13839598e-003,
          6.10351469e-003, -1.14402617e-003, -1.29977986e-003,
          3.73069139e-004, -3.22150486e-003, -2.97568826e-004,
          3.45230941e-003, 3.87068535e-003, -6.09107607e-004,
          2.51690717e-003, -1.19396148e-003, -1.58774992e-003,
          -1.02930691e-003, -2.80889566e-003, 4.38972889e-003,
          7.93923973e-004, 2.59221671e-003, 3.36422375e-003,
          2.30497913e-003, 8.88007577e-004, 6.53576280e-004,
          -1.60600990e-003, -1.49990403e-004, 3.22861737e-003,
          -7.52592518e-004, 2.26582144e-003, 4.79293987e-003,
          6.56334311e-003, -3.29634204e-004, -5.91738557e-004,
          -1.46975275e-003, 4.27415827e-003, 1.87113869e-003,
          1.60784461e-003, 2.41114947e-004, -9.32698138e-004,
          1.55868765e-003, 1.05519930e-003, 3.87604086e-004,
          3.92451137e-003, 3.74041568e-003, 4.53257933e-003,
          -2.27769953e-003, 9.35057236e-004, -1.70432637e-003,
          1.29151240e-003, 7.34293601e-004, 3.59762856e-003,
          2.10976577e-003, 1.20182056e-003, -3.21081607e-003,
          -1.16660539e-003, 1.53896422e-003, 4.14544111e-003,
          7.05338269e-003, 4.37229173e-003, 2.99881678e-003,
          -4.39222576e-003, 3.53795313e-003, 2.82264873e-003,
          -6.11078052e-004, 1.87487109e-003, 6.68192329e-003,
          6.01591449e-003, 9.45446896e-004, 3.31699755e-003,
          -9.34038404e-003, 3.56448325e-003, 7.37940136e-004,
          -1.90229490e-004, -5.73762693e-004, -2.60249712e-003,
          -2.13649211e-004, -2.90803873e-004, 5.28015802e-003,
          -2.36268737e-003, -2.28633056e-003, 1.30786157e-005,
          8.09835445e-004, -2.74443091e-003, 1.56303553e-003,
          5.51031437e-003, -1.35195628e-003, 4.56688274e-003,
          -4.67868336e-003, -1.45394786e-003, 1.54706382e-003,
          9.10669769e-005, -2.27582199e-003, -1.09459506e-004,
          6.33023866e-003, 3.92698962e-003, 3.96486977e-003,
          -6.29093964e-003, 2.16064618e-005, -1.52541068e-003,
          2.46549491e-003, -1.55444501e-003, -6.23783609e-003,
          1.04363717e-003, 2.03649327e-003, 1.43615319e-003,
          -2.24479032e-003, 3.25093628e-004, 2.01945868e-003,
          -1.58155290e-003, -2.80777551e-003, 3.30975419e-003,
          8.20934307e-003, 3.02979606e-003, 5.03272377e-003,
          -3.96899320e-003, -2.30812863e-003, -3.85414087e-003,
          -5.74295060e-004, -3.02768615e-003, -7.36174313e-003,
          6.66138832e-004, 4.00424562e-003, 7.02875061e-003,
          3.37457022e-004, 2.46063084e-003, -3.46481451e-003,
          3.24619608e-003, -3.53433983e-003, -5.88927232e-003,
          2.04778998e-003, -7.22564815e-004, 1.60489092e-003,
          -2.39677867e-003, -3.43467528e-003, 4.80944850e-003,
          3.57266818e-003, -1.96931697e-003, 1.24379440e-004,
          7.63531029e-003, -6.05739711e-004, 4.19431226e-003,
          -4.68382193e-003, -7.80380843e-003, 1.30050816e-004,
          8.11384234e-004, -2.46132095e-003, -4.83541936e-003,
          3.01588979e-003, 1.02805812e-003, 3.54628265e-003,
          4.96742781e-003, 3.47788399e-003, -1.66879816e-003,
          -1.17304979e-003, -6.99586002e-003, -7.81373063e-004,
          1.09083690e-002, 1.50620064e-003, 2.90248520e-003,
          1.25192615e-004, 9.73898452e-004, 6.26525667e-004,
          -6.05303561e-004, -3.31986183e-003, 1.68142538e-003,
          1.21407332e-002, 9.75590898e-004, 5.53993462e-003,
          -7.54300924e-003, -5.53177577e-003, 2.75627407e-003,
          2.37464104e-004, 3.64742987e-003, 7.63455697e-004,
          7.34622218e-003, -2.03347253e-003, 1.93693920e-003,
          -3.56245349e-004, -3.57447949e-004, 3.02214787e-004,
          -4.17878758e-003, -6.76101120e-003, 8.11645878e-004,
          1.11523252e-002, 2.06522038e-003, 2.89012166e-003,
          -5.81866410e-003, -2.72738445e-003, 3.53587908e-003,
          1.13553624e-003, -3.63976648e-003, 5.57231018e-004,
          7.03791343e-003, -8.02549592e-004, 3.92804341e-003,
          -2.90975207e-003, 3.16219754e-004, 2.60379887e-003,
          -3.29447980e-003, 5.78224775e-004, -3.00643500e-003,
          2.76714587e-003, 1.57968607e-003, 4.53224900e-004,
          1.26770698e-004, -1.90509600e-003, -1.63897581e-003,
          -5.15400432e-004, 5.19419962e-004, 2.01103467e-005,
          5.95856179e-003, 2.75601028e-003, 2.63678934e-003,
          6.54004572e-004, -3.07549402e-004, 5.89919335e-004,
          1.41498982e-003, -4.95742261e-003, -3.72809335e-003,
          5.76496264e-003, 1.03642966e-003, 2.54402822e-003,
          7.23109755e-004, 1.46525897e-004, 3.22972029e-003,
          -1.02448021e-003, -2.31668889e-003, -2.23079161e-003,
          5.46875456e-003, 5.50865312e-004, 2.50707334e-003,
          1.66028528e-003, -2.74726795e-003, 5.41917607e-003,
          -1.06479076e-003, -4.57589282e-004, 1.41465303e-003,
          4.44574980e-003, 6.11542305e-003, 1.40353432e-003,
          -4.05807188e-003, -1.24995422e-003, -4.80574410e-004,
          -3.30714835e-003, -1.29639381e-003, 2.50148377e-003,
          7.90648907e-003, 6.04571262e-003, 8.86384584e-003,
          -1.58110075e-003, 1.84584665e-003, -5.53511723e-004,
          1.57358905e-003, -3.08742002e-003, -2.11522030e-003,
          3.48787493e-004, 5.02239214e-003, 8.38639215e-004,
          -4.58365772e-003, -3.17825098e-003, -2.29064771e-003,
          9.90806657e-005, -3.84868821e-003, 2.63625802e-003,
          4.16441914e-003, 1.92557680e-004, 3.99348186e-003,
          -8.59175343e-003, -1.70169189e-003, -1.72631757e-003,
          -1.55269983e-003, -2.61901435e-003, 9.86798550e-004,
          8.31395481e-003, 4.57214518e-003, 7.20820576e-003,
          -3.76131060e-003, 9.80064156e-004, -2.49643985e-004,
          -2.33631907e-003, -4.29759175e-003, 1.84828322e-003,
          5.26226545e-003, 1.17905694e-003, 1.02728570e-003,
          -8.27874802e-003, -9.29928618e-004, -3.00342357e-003,
          4.96183697e-004, 1.08920154e-003, -1.22540852e-003,
          3.84562486e-003, 3.03401938e-003, 5.12490142e-003,
          -9.35760234e-003, -2.72346218e-003, -8.15979547e-006,
          1.77517440e-003, 8.59239837e-004, 1.45662681e-003,
          3.26321041e-003, 1.84760278e-003, 1.80995895e-003,
          -1.15952445e-002, -6.41933968e-003, -4.70993901e-003,
          -1.15273928e-003, -4.55913879e-003, 2.20017694e-003,
          7.43666897e-003, 3.98129830e-003, 2.17403076e-003,
          -5.44574205e-003, -3.23268282e-003, -4.87911468e-003,
          8.78360705e-004, -9.41980397e-004, -1.52910536e-003,
          7.81359896e-003, 1.99985504e-003, 5.11640275e-004,
          1.99009621e-004, -2.83342227e-003, -4.16159770e-003,
          -6.67959102e-004, -2.69631855e-003, 2.95525952e-003,
          6.30681915e-003, 4.78258589e-003, 2.06210976e-003,
          -6.57814601e-003, -4.72859340e-003, -4.37143166e-003,
          -2.65291310e-003, -1.68560375e-003, 2.54389038e-003,
          5.93846245e-003, 3.40264011e-003, 3.98586318e-003,
          -2.78464664e-004, -1.64700486e-003, 6.16771809e-004,
          7.52044562e-003, -1.30461878e-003, -3.18713789e-003,
          5.10447612e-003, 4.57710819e-003, 3.17334081e-003,
          -8.62851448e-004, 3.01465462e-003, 4.37052315e-003,
          1.17035036e-003, -5.31394128e-003, -1.61482126e-003,
          3.96118918e-003, 3.91868595e-003, 1.50095276e-003,
          -4.07965062e-003, 2.67444458e-003, 1.57747755e-003,
          1.48608093e-003, 2.04725703e-003, 1.37386983e-003,
          7.38513283e-003, 2.96163303e-003, 3.47763323e-003,
          -3.80358309e-003, 1.43662468e-003, 4.31164959e-003,
          4.07196785e-004, 1.18817319e-003, -1.90120027e-003,
          3.61211225e-003, 2.55243387e-004, 4.11786838e-003,
          -2.40857201e-003, -1.23782107e-003, -2.32872902e-003,
          3.62589373e-003, -3.98085173e-003, -3.83125804e-003,
          6.31808816e-003, 7.74802174e-003, 1.41290843e-003,
          -9.26925219e-004, -8.75893224e-004, -2.03541553e-004,
          4.23711957e-003, 3.48194013e-003, -1.38503138e-003,
          8.42178892e-003, 5.83592663e-003, 4.69963858e-003,
          -3.06906295e-003, -5.61865373e-003, -2.94494978e-003,
          4.25355602e-003, -3.19623126e-004, -6.28302060e-003,
          4.69518127e-003, 6.05120044e-003, 6.11670641e-003,
          -3.95244890e-004, 5.56011626e-004, -1.12189038e-003,
          4.22738213e-003, 4.51586023e-003, -5.69010712e-003,
          6.14150427e-003, 4.97548515e-003, 4.47993772e-003,
          -6.33715652e-003, -7.15142395e-003, -1.87112403e-003,
          3.60244513e-003, 2.27091624e-003, 4.23491409e-004,
          4.93424106e-003, 4.13763663e-003, 5.36481617e-003,
          -2.55620340e-003, -4.52699605e-003, 5.56985760e-005,
          -1.06423663e-003, -7.41106342e-004, -2.13945983e-003,
          7.47718208e-004, -1.60539057e-003, 5.06205624e-003,
          -2.10077036e-003, -1.03092985e-003, 4.07983502e-003,
          4.11905302e-003, -1.63100916e-003, -2.54439912e-003,
          6.67606806e-003, 3.76522448e-003, 5.00121992e-003,
          -4.23440570e-003, -1.93195694e-004, 2.22492334e-003,
          -9.05268360e-004, -6.90046186e-003, -7.06583308e-003,
          4.14386130e-004, 1.85230587e-004, 1.84648740e-003,
          -3.91611876e-003, 1.74135342e-003, 5.33136027e-003,
          2.44104405e-004, -5.79050218e-004, -4.74497629e-003,
          -1.06607727e-003, -8.41520552e-004, 4.23710281e-003,
          -5.48273092e-003, 3.83583363e-004, 7.59586180e-003,
          -3.60225257e-003, 4.26728453e-004, 2.12701343e-004,
          3.10403877e-003, 2.57796794e-003, 5.38479351e-003,
          -5.06685069e-003, 1.16312318e-003, 3.03405500e-003,
          -2.26127668e-004, -7.52660853e-005, -1.08000857e-003,
          4.96628881e-003, 5.36382617e-003, 1.98467798e-003,
          -6.89409953e-003, 2.36615306e-003, 3.99646536e-003,
          -4.24821116e-003, 2.34577153e-003, 6.12118794e-003,
          7.99522456e-003, 3.40362219e-003, -4.31091350e-004,
          -4.02711984e-003, 8.30848876e-004, 2.18492147e-004,
          -1.95082393e-003, -2.12307740e-003, 1.22512097e-003,
          3.98871861e-003, 7.14940485e-004, -1.68865547e-004,
          -6.72987616e-003, -3.72624770e-003, 7.96249253e-004,
          -8.64503847e-004, 6.57731376e-004, 2.86118058e-003,
          7.61761284e-003, 1.26684306e-003, -7.46765523e-004,
          -7.65506877e-003, -2.35325750e-003, -1.13213668e-003,
          -5.59021719e-004, -2.36677617e-004, 2.82091554e-003,
          8.81961081e-003, -8.63133871e-004, -8.09822348e-004,
          4.34889458e-004, -1.35128223e-003, -1.43649790e-003,
          -1.39473646e-004, -1.87833642e-003, -2.84940260e-003,
          3.66128213e-003, -1.18540961e-003, 9.18378297e-004,
          -1.25594798e-003, -6.12889184e-004, -4.83244564e-003,
          -2.56545423e-003, -3.07070266e-004, 2.51340703e-003,
          7.78880203e-003, 7.75642367e-003, 5.84149966e-003,
          -4.19310667e-003, -4.17306554e-003, -2.56826781e-004,
          -2.17447570e-003, -2.31226720e-003, -6.56293414e-004,
          8.26978870e-003, 5.33624133e-003, 7.68978382e-003,
          -3.46375140e-003, -3.09802289e-003, 2.16412893e-003,
          4.84560514e-005, -1.90077338e-003, -1.90889125e-003,
          5.63102448e-003, 5.99371828e-003, 4.15351056e-003,
          -7.14802975e-003, -5.47297997e-003, -3.28138145e-003,
          -5.16451849e-003, -4.92408033e-003, -1.77711085e-003,
          4.69449814e-003, 3.60205374e-003, 2.42412998e-003,
          -9.09672584e-003, -7.90865906e-003, -1.26796344e-003,
          -1.94768503e-003, -2.76303710e-003, -3.87904234e-003,
          4.84292768e-003, 1.02347722e-002, 1.19439764e-002,
          -3.99139198e-003, -4.91991220e-003, -2.40411866e-003,
          -1.46057433e-003, -4.50362684e-003, -3.80603224e-003,
          6.87894365e-003, 1.03031797e-002, 1.10020535e-002,
          -2.80360618e-005, -3.02897859e-003, -6.18830184e-003,
          -3.01528513e-003, -7.14110816e-003, -2.76550255e-003,
          2.98048020e-003, 6.43327320e-003, 4.60151443e-003,
          -4.75246878e-003, -1.98812759e-003, -5.33128332e-004,
          1.43099052e-003, -2.12569349e-003, -2.04078248e-003,
          1.02603831e-003, 3.66916368e-003, 2.40457919e-003,
          -4.11319872e-003, -2.17279396e-003, -3.46813630e-003,
          -1.53234357e-003, -1.16651633e-003, 5.88823576e-003,
          8.01718049e-003, 7.16361962e-003, 5.61435055e-003,
          1.02818268e-003, -4.42305813e-003, -2.84400280e-003,
          -6.05138112e-003, 4.66537225e-004, 4.49469313e-003,
          6.11322420e-003, 2.69835931e-003, 6.79215603e-003,
          -1.43377565e-005, -1.81787845e-003, 1.63686462e-003,
          -2.57634121e-004, -1.35039125e-004, 4.81584761e-003,
          4.82217083e-003, 1.71565544e-003, 1.88621751e-003,
          -1.25166052e-003, -3.47178732e-003, -6.86803879e-003,
          -3.97650478e-003, -2.29777000e-003, 1.92544935e-003,
          4.31543635e-003, -1.02531933e-003, 4.98559000e-003,
          -2.16149609e-003, -1.74835196e-003, -6.05036225e-003,
          -4.35895752e-003, -1.99060375e-003, 3.06521682e-003,
          2.05304194e-003, 4.14866302e-003, 8.61460436e-003,
          5.99688210e-005, -1.21718645e-003, 5.35483751e-003,
          -2.28874362e-003, 2.45401543e-003, 3.80670303e-003,
          1.35613582e-003, 3.49724665e-003, 4.81699314e-003,
          -4.21996601e-003, -5.29532367e-003, 1.35984865e-003,
          -2.34629354e-003, -3.89595050e-003, 1.44601543e-003,
          3.34348367e-003, 1.51414808e-003, 6.50930963e-003,
          -1.57561642e-003, 7.69843813e-004, 1.16192724e-003,
          -5.00442274e-003, -1.36417279e-003, 1.13154796e-003,
          2.84224190e-003, 2.93237972e-003, 4.79483418e-003,
          -1.27180235e-003, -2.87265261e-003, 1.51958189e-003,
          -1.14992366e-003, -7.02869787e-004, -7.26029684e-005,
          4.05696081e-003, 4.10817983e-003, 3.26521974e-003,
          -3.40153929e-003, -6.87135942e-003, -7.16163137e-004,
          -2.43298709e-004, 8.21750029e-004, -1.24215928e-003,
          6.45569805e-003, 3.75462812e-003, 5.01652295e-003,
          -3.70649458e-003, -4.12962167e-003, 2.30230158e-003,
          -3.04104947e-003, -1.99443987e-003, -1.03405924e-004,
          2.95923580e-003, 3.55972652e-003, 6.06624875e-003,
          -3.39408219e-003, -4.86719189e-003, -1.03276712e-003,
          1.32191810e-004, 4.44145408e-003, -1.32916286e-003,
          5.22039831e-003, 4.25047148e-003, 5.06994734e-003,
          -5.99965313e-003, -5.70352515e-003, 2.85180658e-003,
          1.51435647e-003, 2.25758250e-003, -1.06905564e-003,
          9.69744939e-003, 7.38538662e-003, 4.85355407e-003,
          -6.83030579e-003, -5.95689751e-003, 1.79133879e-003,
          2.08039186e-003, -5.52943209e-004, -1.61669846e-003,
          1.07682850e-002, 4.91017615e-003, 5.49693312e-003,
          -9.00986698e-003, -1.06675830e-002, -4.59676655e-003,
          -9.58727440e-004, 1.30992418e-003, -3.03467549e-003,
          8.68530758e-003, 5.62533550e-003, 4.82866820e-003,
          -8.49447586e-003, -5.31792501e-003, 2.92814133e-004,
          -2.42331618e-004, -3.50914081e-004, -7.68679136e-004,
          6.88976701e-003, 2.95569259e-003, 2.61182454e-003,
          -8.78916122e-003, -7.45197013e-003, -6.06370810e-003,
          4.64254292e-003, 6.68990950e-004, 2.29248381e-003,
          5.39650628e-003, 3.64781986e-003, 3.80687928e-003,
          -9.38494131e-003, -7.54469307e-003, -8.77352548e-004,
          7.79937115e-003, 2.46124598e-003, -3.13572353e-004,
          2.47901375e-003, 2.87679094e-003, 4.79864934e-003,
          -4.26721014e-003, -2.91642174e-003, -6.25759247e-004,
          3.86595493e-004, 1.13988540e-003, 1.44649515e-004,
          4.62325709e-003, 3.42991157e-003, 4.45391191e-003,
          -5.32524567e-003, -5.87772205e-003, -1.23349344e-003,
          -3.61332524e-004, 2.41917535e-003, -2.26691435e-003,
          4.15333081e-003, 1.57720246e-003, 4.03320137e-003,
          -4.32578707e-003, -2.33598752e-003, -2.61953822e-003,
          -9.12302523e-004, -1.19607220e-003, -3.14759929e-003,
          2.28352658e-003, 1.07382024e-002, 4.71729692e-003,
          -8.11743736e-003, -8.84720404e-003, -2.71044904e-004,
          -1.22481526e-003, -5.46149118e-003, 3.32373939e-003,
          5.14787808e-003, 1.53427548e-003, 1.42260443e-003,
          2.29226207e-004, -8.72566656e-004, -4.86701215e-003,
          -4.02322691e-003, -2.37674778e-003, 7.95922882e-004,
          7.72307860e-004, 8.96845851e-003, 5.91431838e-003,
          -6.07374450e-003, -8.83440953e-003, -5.72859962e-003,
          -2.76283082e-003, -4.38157609e-003, 7.90896069e-004,
          5.41051896e-003, 3.66765936e-003, 5.77511266e-003,
          3.01941356e-004, -6.45342283e-003, -7.14690192e-003,
          -1.29730720e-003, -4.47610067e-003, -1.02302316e-003,
          3.54764611e-003, -2.31601205e-003, -1.56669726e-003,
          2.43865815e-003, 4.31755837e-003, -2.70919478e-003,
          -7.03420723e-004, -5.49655000e-004, -5.67594450e-003,
          -2.65082461e-003, -4.48728632e-003, -1.05659470e-004,
          1.42122954e-004, 5.85132977e-003, 3.22711014e-004,
          -6.41509134e-004, -5.93734719e-003, -8.69635958e-003,
          1.01866515e-003, -2.18694936e-003, 2.86522880e-003,
          2.27557332e-003, 2.11274764e-003, -6.23606425e-003,
          -4.95743798e-003, -6.52085757e-003, -1.13811363e-002,
          -2.52841832e-003, -2.15478754e-003, 4.10964852e-003,
          2.94200517e-003, 1.23779546e-003, -4.39629192e-003,
          2.11235881e-003, 4.07158025e-003, -9.17675963e-004,
          3.13480408e-003, 8.59951106e-005, -4.98224108e-004,
          -2.37615104e-003, 1.11773435e-003, 5.42881025e-004,
          3.96216894e-003, 1.53888203e-003, -8.39382119e-004,
          8.05982668e-003, -9.89046297e-004, 3.54398927e-003,
          -2.25953758e-003, -3.70952650e-003, -2.54538166e-003,
          -5.69289725e-004, -2.10939208e-003, -6.11262303e-003,
          1.32721430e-003, -6.11400697e-004, 6.39694883e-003,
          1.16027123e-003, -2.17529526e-003, -4.32847673e-003,
          -1.56925747e-003, -2.67219986e-003, -2.95796688e-003,
          1.91857398e-004, -7.10117677e-003, 1.13918923e-003,
          -5.97510021e-004, -2.95923073e-005, 1.15218409e-003,
          1.25099032e-003, -2.62552802e-003, -1.38872745e-003,
          5.68223931e-003, 5.84511261e-004, 6.78574806e-003,
          2.18360708e-003, 4.56428993e-003, 9.26797278e-004,
          -8.23241950e-004, -2.29284656e-003, -1.33698655e-003,
          2.62470474e-003, -1.18352310e-003, 3.29375430e-003,
          -1.10302551e-003, 4.24183439e-004, -1.37707230e-003,
          -4.08772333e-003, -4.43119602e-003, -5.24031930e-003,
          6.70853828e-004, -4.79714305e-004, 7.31167663e-003,
          -1.72306970e-003, -4.51050400e-005, 4.01132973e-003,
          -5.92809753e-004, 1.06085255e-003, -7.70137552e-003,
          -2.20374088e-003, -3.27806617e-003, 3.89648601e-003,
          -3.47639807e-003, 1.02532748e-003, 4.89212805e-003,
          1.48973649e-003, -1.31680700e-003, 1.82229269e-003,
          8.99812300e-003, 1.73971045e-003, 2.13580742e-003,
          -2.12160032e-003, 3.52021976e-004, -5.83621368e-005,
          5.66856994e-004, 7.26336730e-004, 3.01482994e-003,
          8.80587939e-003, 1.75541546e-003, 6.01914013e-004,
          -5.11135813e-003, -3.94765893e-003, -1.83191383e-003,
          -1.51503991e-004, -5.83970046e-004, -2.43226532e-003,
          2.14121281e-003, -1.07587921e-003, 8.54675251e-004,
          -3.00034438e-003, -2.45887158e-003, 9.30221635e-004,
          -5.71121601e-003, -3.60031775e-003, -1.91882148e-003,
          5.56691503e-003, -7.77526817e-004, -4.37763432e-004,
          -2.21243547e-003, -5.35669271e-003, -5.79551980e-003,
          -2.49907956e-003, 9.29728092e-004, -8.50632438e-004,
          1.84768019e-003, 2.27629417e-003, 1.40013883e-003,
          -1.60694169e-003, -1.19958026e-003, -1.26776192e-003,
          9.84027167e-004, -2.99826148e-003, -6.13497524e-003,
          1.31121266e-003, 2.38850852e-003, 6.50258362e-003,
          4.84877441e-004, 3.15580470e-003, 6.36190409e-003,
          -1.77390617e-003, -2.31347140e-003, -2.67696683e-003,
          -1.26421475e-003, -4.46761172e-004, 2.23601446e-003,
          -4.45516111e-004, -3.71294213e-003, -3.25652701e-003,
          2.94928649e-003, -3.04852554e-004, -5.54991513e-003,
          -4.31748712e-003, -4.11472889e-003, 5.27482852e-003,
          3.38952080e-003, 2.74866680e-003, 1.77248043e-003,
          3.02615645e-003, 3.04321700e-004, -2.02241400e-003,
          1.89921365e-003, 2.20204587e-003, 3.44648282e-003,
          -3.27813835e-003, -1.45414076e-003, -3.61014711e-004,
          -2.60340143e-003, 1.01296103e-003, -8.29482160e-004,
          2.31663976e-003, 5.20074833e-003, 2.80663976e-003,
          -4.60598525e-003, 2.65992188e-004, -2.53532548e-003,
          4.64158272e-003, 2.06873359e-004, -1.29352266e-003,
          -3.92482243e-003, -2.68194196e-003, 3.05732666e-003,
          -3.43843509e-004, 1.42318709e-003, -1.72464689e-003,
          -1.92399276e-003, -5.12147602e-003, -3.30833881e-003,
          1.54797992e-004, -1.02164305e-003, 6.08899910e-003,
          -1.58678379e-003, 1.08776090e-003, -3.72092891e-003,
          1.40317751e-003, 5.48007432e-004, -1.21084275e-004,
          3.31002899e-004, 3.65558127e-003, 5.10302093e-003,
          -4.10080049e-003, 1.88085507e-003, 2.30749906e-003,
          3.80445947e-003, 7.14069989e-004, -1.19323086e-003,
          1.69769896e-003, 9.98999574e-004, 4.31157975e-003,
          -2.94092298e-003, -2.84934766e-003, 2.57032597e-003,
          -2.67685717e-003, -7.23218918e-003, -4.41450253e-003,
          -3.68179544e-003, -6.02585031e-004, 6.49511255e-003,
          4.02260432e-003, 4.65576630e-003, 3.43813840e-003,
          -2.88659823e-003, -6.87934551e-003, -3.66468402e-003,
          -7.05571147e-003, -3.33766290e-003, 2.40307022e-003,
          -8.64547852e-004, -7.34876323e-007, -5.67033829e-004,
          1.28301280e-003, -1.65026414e-003, -2.83638388e-003,
          4.41395771e-003, 2.19723396e-003, 3.22070252e-003,
          -3.01839854e-003, -5.17438725e-003, 4.35414004e-005,
          -1.03814760e-003, 2.89554172e-003, 8.13956358e-005,
          6.27604825e-003, 3.10013676e-003, 5.41400304e-003,
          1.01053563e-003, -3.08784627e-004, -1.80595450e-003,
          -2.72511924e-003, -3.16716544e-003, -3.66538553e-003,
          -2.70250865e-004, 3.05561727e-004, 3.56813846e-003,
          -1.97399082e-003, -3.67007358e-003, 2.67944764e-004,
          -6.43807696e-003, -2.10423395e-003, -1.08690700e-004,
          1.40591280e-003, 5.65940456e-004, 6.32318156e-003,
          2.39540404e-003, -9.67866974e-004, 1.49930973e-004,
          4.18357179e-003, 2.06860271e-003, -6.26767694e-004,
          -1.77210837e-004, 2.67437845e-003, 4.85080481e-003,
          3.91515996e-003, -3.74520285e-004, -1.63449161e-003,
          5.37841208e-003, 5.34217688e-004, 1.82995736e-003,
          3.10386415e-003, 5.60969068e-003, 4.57628630e-003,
          5.70802158e-003, 3.98486992e-003, 3.12504219e-003,
          -2.99936626e-003, -4.25293855e-003, -4.96403221e-003,
          -3.33519559e-003, -3.42114992e-003, -3.86701571e-003,
          -6.06928812e-003, -3.29163903e-003, -6.08537858e-003,
          -4.06290591e-003, -3.39564605e-004, 2.65184767e-003,
          3.50648677e-003, -1.76195987e-003, -8.56524054e-003,
          -7.05404021e-003, 1.28858513e-003, -3.29127861e-003,
          2.96939560e-003, -1.45093887e-003, -1.58651790e-003,
          -8.26323885e-005, 2.87838769e-003, 3.53537127e-003,
          4.70852060e-003, -1.07986713e-003, 3.88109474e-003,
          1.65026984e-003, 1.30570121e-003, -2.15233047e-003,
          -1.51833767e-004, 3.55212553e-003, 7.44246971e-003,
          6.23053857e-005, 1.74173538e-003, -2.54165684e-003,
          -1.98167423e-003, 3.36552155e-004, 4.26944142e-004,
          1.86370889e-004, 8.29273893e-004, -6.45862613e-003,
          -9.32312477e-003, -2.30183025e-004, 3.98595445e-003,
          -1.67596061e-003, 5.93769480e-004, 4.37773211e-004,
          -8.91939038e-004, 1.35081622e-003, 1.62199838e-003,
          -3.61155812e-003, 2.35436019e-003, 8.88457173e-004,
          -3.96482938e-004, 1.35178189e-003, 2.78353877e-003,
          2.73882761e-003, 7.04167085e-003, 6.66804565e-003,
          -4.47227526e-003, 2.08798028e-003, -3.40424059e-003,
          3.08150193e-003, 5.32038137e-003, 4.31608874e-003,
          4.50305454e-003, 4.41604760e-003, 2.53774389e-003,
          -7.38109043e-003, -8.25379626e-004, -3.55180027e-003,
          3.65074025e-003, 2.73620593e-003, 3.66131845e-003,
          4.69416520e-003, 3.12820147e-003, 2.07555667e-003,
          -3.43964901e-003, -9.84431012e-004, -1.82705384e-003,
          3.09796934e-003, 2.65667029e-003, -1.78564026e-003,
          3.96660576e-003, 4.21881210e-004, 1.61412882e-003,
          -5.61827607e-003, -1.62590295e-003, -6.88766944e-004,
          5.18376648e-004, -5.52100304e-004, -1.84975483e-003,
          -1.66307960e-003, 2.84659531e-004, 8.81978776e-004,
          -7.12495577e-003, -1.09606702e-003, 1.15777575e-003,
          4.13566781e-003, -8.41282192e-004, -2.37116544e-003,
          3.10801156e-003, 5.22222789e-003, 2.93267029e-003,
          -3.81510239e-003, 1.47596048e-003, 3.34087154e-003,
          -1.63968746e-003, -1.74118304e-005, -6.25990052e-003,
          1.88355101e-003, -6.00096362e-004, 1.23627356e-003,
          -4.65151714e-003, -1.93931756e-003, 1.44114147e-003,
          6.22813066e-004, -7.31010223e-004, -8.21598107e-004,
          3.50897643e-003, 2.80578528e-003, 2.60897609e-003,
          1.25727078e-004, 7.26170558e-003, 7.82299973e-003,
          7.53587752e-004, -6.99165103e-004, -1.90727960e-003,
          3.26295872e-003, 9.12230276e-003, -8.86250695e-004,
          -6.17357483e-003, -3.47542111e-003, 5.31460857e-004,
          2.92688003e-003, 1.63119775e-003, 1.87656085e-003,
          5.35360724e-003, 3.54805915e-003, 2.58690980e-003,
          -7.76291033e-003, 1.56572845e-004, 5.45881037e-003,
          1.78952888e-003, -2.58805370e-003, -1.19785941e-003,
          5.18718641e-003, 2.12710653e-003, -1.72229577e-003,
          3.41754028e-004, 1.94260516e-004, 2.44417205e-003,
          2.60368478e-003, -8.85784160e-004, 7.44753634e-004,
          6.89179078e-003, -1.90671382e-003, 4.44402173e-003,
          -2.63158348e-003, -2.09770864e-003, 3.09070922e-003,
          4.02994832e-004, 3.57077806e-004, 5.45371498e-004,
          8.36477429e-003, 6.13405043e-003, 2.60903407e-003,
          -1.04947845e-002, -6.15969009e-004, 5.61254704e-003,
          6.51405484e-004, 9.34915879e-005, -1.36711600e-003,
          7.22498540e-003, 1.69428485e-003, 3.90692893e-003,
          -4.59379284e-003, -8.80440872e-004, 5.46264788e-003,
          2.28230190e-003, -2.44344701e-003, -2.71312823e-003,
          7.54215382e-003, 1.01626014e-004, 2.97542918e-003,
          -6.59376429e-003, -6.16541924e-003, 4.97738644e-003,
          -9.82945785e-004, -1.41951197e-003, -5.40562533e-003,
          5.12891682e-003, -5.40290377e-004, 9.87228123e-004,
          -2.79230508e-003, -5.15761087e-003, -1.02125050e-003,
          2.74634978e-004, -3.14646354e-003, -3.24749085e-003,
          5.20062447e-003, 1.40100368e-003, 7.04203779e-003,
          2.17170949e-004, 8.29204393e-004, 5.71282301e-003,
          -2.76119588e-003, 2.14808577e-004, 3.50481994e-003,
          7.60147907e-003, 3.88829899e-003, -5.71242126e-004,
          -1.49772898e-003, 2.01060530e-003, 1.83859933e-003,
          1.15621905e-003, -3.06270667e-004, -2.75064586e-003,
          3.10241082e-003, 6.82109167e-005, 2.59629125e-003,
          8.78746447e-004, -1.75144139e-003, -1.49913353e-003,
          -1.29227538e-003, 5.43035101e-004, 4.13630996e-003,
          4.01682872e-003, -1.01252447e-003, 1.71075971e-003,
          -1.18217512e-003, 2.24632374e-003, 4.81886760e-004,
          -4.40854160e-003, 6.16769365e-004, 4.32870025e-003,
          6.79266267e-003, 3.89951561e-003, -5.04093990e-003,
          -4.21158690e-003, -2.81320070e-003, 2.02875375e-003,
          7.92015984e-004, 4.95179649e-003, 5.70319069e-004,
          4.45492985e-003, 8.83124419e-004, -3.01165716e-003,
          -5.36529627e-003, -8.14408343e-003, -1.96021330e-003,
          5.98274986e-004, 1.47161505e-003, 8.96630576e-004,
          6.18820451e-003, 2.97652651e-003, 1.92400953e-003,
          -6.08153036e-003, -3.05824750e-003, 3.45912506e-003,
          1.57336053e-003, 4.78851004e-003, -3.93253937e-003,
          3.25617706e-003, 1.32909219e-003, 2.66713579e-003,
          -3.73296905e-003, -1.08975370e-003, -6.32957439e-004,
          2.72531924e-003, 6.24967832e-003, -1.58637459e-003,
          3.78341321e-003, 2.08902755e-003, 2.88059760e-004,
          -7.70190323e-004, -7.31511507e-003, -2.64485902e-003,
          2.10895494e-004, 2.37339595e-003, -2.43452704e-003,
          4.16589016e-003, 3.36124166e-003, -1.44260004e-003,
          -2.15054280e-003, -5.65112149e-003, -1.16841169e-003,
          4.17931005e-003, 3.75173055e-003, -6.19442901e-004,
          6.74234284e-003, 6.72926242e-003, 4.65328107e-003,
          6.56252814e-005, 1.44477293e-003, -3.16954497e-003,
          5.38038416e-003, 5.43307140e-003, 1.69967394e-003,
          8.37470312e-003, 2.97097955e-003, 1.99961686e-003,
          -1.23174489e-003, -3.79743986e-003, -4.55617905e-003,
          4.44652746e-003, 1.12205651e-003, -1.77301932e-003,
          4.10975609e-003, 2.01768824e-003, 3.36122263e-004,
          -1.47902826e-003, 9.94519796e-004, 4.74420004e-003,
          4.73147910e-003, 2.46938225e-003, -3.64455674e-003,
          1.45193146e-004, -2.74732622e-004, 5.88452816e-003,
          -6.77024946e-004, -1.16790773e-003, 2.84764636e-003,
          7.89044145e-003, 1.49982446e-003, 2.12040939e-003,
          7.39067513e-003, -3.79924983e-004, -5.40715363e-003,
          -4.74275090e-003, -1.05445739e-003, -5.80605934e-004,
          7.61749176e-003, -7.57940754e-004, -1.64812338e-003,
          -7.53252592e-004, -5.68833202e-003, -1.00083812e-003,
          -2.94701639e-003, -1.84129120e-003, 2.33971584e-003,
          1.57916686e-003, 1.38037931e-003, -1.68846094e-003,
          -2.09703459e-003, 2.48400401e-003, 5.27466135e-003,
          -4.89968667e-003, -3.18150781e-003, 1.74451759e-003,
          -1.93670904e-003, -4.04487457e-003, 1.36299862e-003,
          4.16405080e-003, 3.89905646e-003, 2.73495703e-003,
          -5.47724683e-003, -2.67924881e-003, 5.12212457e-004,
          3.56218079e-003, 2.08253064e-003, 2.85148458e-003,
          3.52204614e-003, 9.58434597e-004, 4.03285865e-003,
          -3.52571020e-003, -2.44568032e-003, 5.09123434e-004,
          1.89997139e-004, 3.12463753e-003, 1.05520245e-003,
          4.73257480e-003, 6.21941360e-003, 1.95589312e-003,
          -2.69394484e-003, 5.70415752e-004, -4.30746423e-003,
          1.89100963e-003, -1.75651454e-003, -5.07807745e-005,
          7.38973357e-003, 9.13555827e-003, 6.66655879e-003,
          -4.30432288e-003, -3.90396407e-003, 2.43429537e-003,
          2.21213023e-003, -2.85011367e-003, -3.75771872e-003,
          5.55372192e-003, 6.79128105e-003, 8.44178908e-003,
          -1.61923491e-003, -2.29211221e-003, 1.52744190e-003,
          3.99423018e-003, 2.27555493e-003, -5.15990285e-003,
          2.93185562e-003, 5.78243518e-003, 2.99383397e-003,
          -3.21121188e-003, -4.02542716e-003, -3.11046303e-003,
          -7.91224884e-004, -6.10889459e-004, -2.06395634e-003,
          1.96812348e-003, 4.18640760e-004, 1.73311622e-003,
          -7.33350404e-003, -8.25614389e-003, 1.31601424e-004,
          1.21439609e-003, -4.64976113e-003, -3.39151989e-003,
          2.35434645e-003, 4.37060511e-003, 5.44780446e-003,
          1.54490431e-003, 1.16797315e-003, 8.48016120e-004,
          3.25957267e-003, -1.86590373e-003, 1.88982254e-003,
          6.81439787e-003, 1.44828740e-003, 9.77665652e-004,
          -7.51757238e-004, 1.91079255e-003, 2.62905215e-003,
          -2.80683208e-003, -5.46059711e-003, -1.17512024e-003,
          5.28627308e-003, 4.36696311e-004, 1.33308454e-003,
          -6.96849171e-003, -1.54275633e-003, 3.90531466e-004,
          -3.31653486e-004, -1.85055414e-003, 1.59486232e-003,
          2.06862600e-003, -4.12164227e-004, -3.51678533e-003,
          -4.77769971e-003, -4.90311591e-004, 2.96365772e-003,
          2.22237874e-003, -2.32696999e-003, 2.23280746e-003,
          4.65291459e-003, 3.24922963e-003, 2.00981391e-003,
          -6.43539336e-003, -2.21836101e-003, 4.28824173e-003,
          3.48094269e-003, 4.95888118e-004, 1.09093939e-003,
          6.07809285e-003, 3.41317616e-003, 5.00574056e-003,
          -1.19870389e-003, -9.40938247e-004, 2.65768892e-003,
          -1.42683100e-004, 2.67464039e-003, -5.86893351e-004,
          -1.09583954e-003, 1.25999947e-003, -2.98040896e-003,
          -9.48823523e-003, -2.44940491e-003, 6.27548760e-003,
          -6.02413551e-004, 1.72577158e-003, -1.92519045e-003,
          1.98093522e-003, 9.69869259e-004, 2.74576829e-003,
          -7.97029771e-003, -3.09344823e-003, 5.01534017e-003,
          1.61437155e-003, -6.42305822e-004, 6.67944114e-005,
          4.31246078e-003, 6.43279683e-003, 3.54501861e-003,
          -8.84633046e-004, 8.90838681e-004, 3.61054228e-003,
          -3.05651990e-003, -6.81597856e-004, 2.26062536e-003,
          5.69480890e-003, 4.83914139e-003, 1.61398412e-003,
          -3.46750580e-003, -5.77978964e-004, 2.18967977e-003,
          -6.40817918e-004, 5.54080820e-004, -6.95895345e-004,
          9.60451900e-004, 1.97470328e-003, 3.60697112e-003,
          -4.61213943e-003, -3.76332132e-003, 3.26123292e-004,
          -1.11177005e-003, -4.25886741e-004, -1.79163471e-003,
          -1.10151456e-003, -1.09980923e-004, 2.38874345e-003,
          -7.42611382e-003, -3.03435582e-003, 6.87904656e-004,
          1.22499955e-003, -2.61271815e-003, 1.30378452e-004,
          7.11733708e-004, 7.91056734e-003, 3.74319032e-003,
          -4.29623481e-003, 1.53078145e-004, 4.25403751e-003,
          4.50569205e-003, 2.80520995e-004, 5.02677774e-003,
          4.24339669e-003, 5.83728636e-003, 7.07861455e-003,
          -3.03963362e-003, 5.97215665e-004, 2.18733796e-003,
          -1.68230466e-003, -5.22797648e-003, -2.33626924e-003,
          -1.37708720e-003, 3.64337186e-003, 2.76190904e-003,
          -4.55686823e-003, -1.89056771e-003, 3.33562813e-004,
          -1.78591232e-003, -2.20141141e-003, -2.60504917e-003,
          -3.22440057e-004, 2.94310361e-004, 2.28852802e-003,
          -1.64529984e-003, -9.97997820e-004, 4.74667002e-004,
          5.49521483e-003, 2.31432123e-003, -1.41050768e-004,
          5.36409207e-003, 9.21010971e-003, 5.05301403e-003,
          -5.75928437e-003, -3.81853501e-003, 2.81775458e-004,
          5.93931880e-003, 2.90769711e-003, 5.11969498e-004,
          1.39899633e-003, 4.62957565e-003, 3.90019827e-003,
          -3.26949242e-003, -5.45457145e-003, 7.15581875e-004,
          -1.60420756e-003, -9.75623669e-004, -5.92264254e-003,
          2.38763960e-003, 2.55310861e-003, 9.69386485e-004,
          -3.67888436e-003, -2.25188793e-003, -3.97281768e-003,
          -1.02873426e-003, -9.73713992e-004, -5.79098426e-003,
          -1.96705316e-003, -5.75438957e-004, 1.89907034e-004,
          -6.35082461e-003, -1.54255913e-003, -4.53661475e-003,
          1.20564469e-003, -1.44106467e-004, -5.46825409e-004,
          3.75988637e-003, 8.03025626e-003, 2.05689459e-003,
          9.36617900e-004, -3.67413717e-003, 2.87136366e-003,
          -2.34080129e-003, -1.32924085e-003, 1.24683732e-003,
          9.65542998e-003, 9.39966086e-003, 7.19010271e-003,
          2.68255244e-003, -5.10643062e-004, 1.13249093e-003,
          -2.83991173e-003, -4.13745036e-003, -4.34443634e-003,
          -1.79334241e-003, 7.39587995e-004, 9.94210481e-004,
          -3.83131951e-003, -4.45296243e-003, -4.52271663e-004,
          -6.68781297e-003, -2.85628880e-003, -2.46848329e-003,
          2.30446784e-003, 1.06694223e-003, 4.33835713e-003,
          -4.95981891e-003, -3.75224906e-003, -3.80427693e-003,
          2.45072646e-003, 6.80634566e-003, 4.01124265e-003,
          9.09561105e-003, 4.00863774e-003, 1.72431895e-003,
          -4.96668182e-003, -1.78115629e-003, -4.45935410e-004,
          5.25095500e-003, 5.64742368e-003, 6.58312463e-004,
          2.71432265e-003, 3.43771302e-004, 3.06867855e-003,
          -3.94509779e-003, -5.16548054e-004, 2.40712008e-003,
          -2.30337470e-003, 1.73032307e-003, 8.37057130e-004,
          2.88504059e-003, 2.62233312e-004, 3.36106797e-003,
          -4.93029039e-003, -2.22527981e-003, 3.95037816e-004,
          4.04979073e-004, -3.39751132e-004, -1.54425076e-003,
          1.39205647e-003, 6.80511934e-004, 2.87679280e-003,
          -5.78313542e-004, -2.48560822e-003, 2.29458534e-003,
          5.09861298e-003, 2.94569344e-003, -4.95786918e-003,
          2.46154639e-004, 3.51997279e-003, 5.28085418e-003,
          -4.64865763e-004, -9.51887341e-004, 4.39099316e-003,
          -2.18750723e-003, 4.27593244e-003, -3.52698565e-003,
          1.06226490e-003, 2.25677923e-003, 2.54303101e-003,
          -5.15447976e-003, -3.58827831e-003, -1.63033791e-003,
          2.30989838e-003, 4.85501485e-004, -1.58314535e-003,
          8.13165680e-004, 2.19410728e-003, 5.46260178e-003,
          6.81448495e-004, -2.36918306e-004, 3.65669443e-003,
          2.04475131e-003, 2.77874037e-003, -1.52298680e-003,
          -1.20200682e-003, 1.21217733e-003, 1.90458412e-003,
          -1.00861583e-003, 7.42137956e-004, 1.47412263e-003,
          3.58670717e-004, 3.52451199e-004, -3.77628207e-003,
          3.18055809e-003, 2.42178002e-003, 1.74255949e-003,
          -2.01534410e-003, 2.52917339e-003, 1.85510737e-003,
          -1.46923959e-003, -5.31267142e-003, -6.25822553e-003,
          4.84889839e-003, 3.32260411e-003, -1.24245256e-004,
          -5.34753734e-003, 1.39470922e-003, 2.74679530e-003,
          8.69328971e-004, -6.53660914e-004, -3.21735541e-004,
          5.66377479e-004, -5.05916192e-004, 3.47528351e-003,
          3.83392954e-003, 2.64082965e-003, 3.22812446e-003,
          1.48297031e-003, -3.44529795e-003, -1.54787360e-003,
          3.21779260e-003, -2.27600941e-003, 1.08220195e-003,
          -2.95350037e-004, 1.24504813e-003, 1.46797963e-003,
          -2.53139599e-003, -1.48147007e-003, 1.59605173e-003,
          8.63260962e-003, 5.66047756e-003, -2.81964010e-003,
          -6.82867831e-003, -2.35506101e-003, -6.07842521e-004,
          -1.06340041e-003, 8.07659235e-004, 7.52396043e-003,
          5.25501836e-003, 2.02379446e-003, -2.57466012e-003,
          -2.03684089e-003, 1.03006969e-004, -2.38358742e-003,
          -1.96880894e-003, -1.93955109e-003, -2.06815009e-003,
          4.70072636e-003, 2.89666373e-003, -2.66283285e-004,
          -3.46943852e-003, -2.78836256e-003, 3.36397858e-003,
          -1.92488881e-003, 2.53249309e-004, -1.80837768e-003,
          1.85008824e-003, 2.25998042e-003, 1.04967749e-003,
          -1.80215307e-003, -2.64839153e-003, -8.48210009e-004,
          2.04790453e-003, -1.47173693e-003, -2.02231668e-003,
          4.07628389e-003, 2.65741465e-003, -2.73683341e-004,
          8.18526605e-004, 9.55811993e-004, -4.20711120e-004,
          4.09774482e-003, -1.57757814e-003, -3.80417285e-003,
          2.54735188e-003, 2.49807606e-003, 1.18784921e-003,
          8.96745594e-004, -1.94708805e-003, -4.02024388e-003,
          2.03988794e-003, 1.02244888e-003, -8.97951832e-004,
          2.44218297e-003, 3.74147925e-003, -2.98130536e-003,
          -4.87502804e-003, -1.45891891e-003, -6.42335683e-004,
          -1.80552027e-003, -1.64053240e-003, -6.70850393e-004,
          9.40038954e-005, -1.41318666e-003, -6.93743490e-003,
          -2.32408429e-003, -1.71809760e-003, -3.79792904e-003,
          -1.15477631e-003, -3.18729877e-003, -2.94527970e-004,
          5.34737762e-003, 4.30615712e-003, 4.59366944e-003,
          -2.83929124e-003, -3.88690340e-003, -4.11520712e-003,
          -4.32389416e-003, -7.72485556e-003, -1.24114100e-003,
          6.15601940e-003, 3.85068753e-003, 6.70916215e-003,
          -1.60018622e-003, -3.38357757e-003, -3.62679246e-003,
          -3.18348687e-003, -3.73151270e-003, 1.78868487e-003,
          3.29084438e-003, -3.73635470e-004, 1.63758313e-003,
          -1.65288639e-003, -2.26904987e-003, -2.61690025e-003,
          -3.64906504e-003, -5.18636405e-003, -6.19210070e-003,
          7.30815751e-004, -4.16052062e-003, 5.94091369e-004,
          -2.11368524e-003, -3.10017727e-003, 3.63435684e-004,
          9.39176476e-004, -7.52289966e-003, -2.04613619e-003,
          5.42942854e-003, 5.62097412e-003, 3.27199069e-003,
          4.09908034e-003, -1.31775520e-003, 2.27009528e-003,
          3.76226101e-003, -6.01408491e-003, -3.24446708e-004,
          4.01123660e-003, 5.83525572e-004, -2.23137159e-003,
          -4.65877150e-004, -8.51600955e-004, -1.32181274e-004,
          3.19224247e-003, -4.47030691e-003, -6.02776976e-003,
          3.76554998e-003, 3.19089345e-003, -1.38287921e-003,
          -5.28408505e-004, -5.74754318e-003, 1.04675617e-003,
          1.81915457e-004, -6.14140276e-003, -3.87772638e-003,
          4.41803318e-003, 3.54232080e-003, -1.23242987e-003,
          -3.34630138e-004, -7.59407121e-004, -1.93176209e-003,
          4.52487450e-003, -3.02480930e-003, 3.97554226e-003,
          1.06473872e-002, 5.58555732e-003, 6.03600463e-004,
          -1.98985520e-003, -1.75985473e-003, -1.77323964e-004,
          2.42657633e-003, -3.87348514e-003, -7.45278026e-004,
          7.54462089e-003, 5.23494929e-003, 4.36929427e-003,
          -1.84374361e-003, -2.47069355e-003, 3.56903387e-004,
          7.54875597e-004, -5.95270423e-003, -2.18535936e-003,
          5.58279268e-003, 5.16544515e-003, 1.96617306e-003,
          -4.77714790e-003, -2.12948467e-003, -1.93055684e-003,
          -1.11468497e-003, -4.25640168e-003, -7.62628904e-003,
          2.30132966e-004, -6.62579492e-004, 4.56186291e-003,
          -6.33172365e-003, 2.47270963e-003, 8.05969292e-004,
          4.58102644e-004, -3.09928949e-003, -4.28482937e-003,
          6.69858325e-003, 1.64692872e-003, 1.48590223e-003,
          -1.86365994e-003, 1.39920530e-003, 4.57195449e-004,
          1.52124569e-003, 1.09412312e-003, 8.06821743e-004,
          5.01475018e-003, 3.82275810e-003, 3.95244360e-003,
          2.54762534e-004, 2.01566471e-003, -1.82963931e-003,
          3.34832282e-003, 1.38744072e-003, -6.03029691e-003,
          2.40088231e-003, -2.01969221e-003, 3.86290648e-003,
          -4.31155553e-003, 2.23196184e-004, 1.86004254e-004,
          2.18567578e-003, 1.63251976e-003, -3.34856776e-003,
          2.52114190e-003, -4.34790226e-003, -2.87184911e-003,
          -2.87176040e-003, -3.09050386e-003, -5.80161519e-004,
          4.17768769e-003, 2.67199310e-003, 1.04184181e-003,
          3.40264942e-003, 6.55117817e-003, 7.47602666e-003,
          -2.84893485e-003, -3.65663157e-003, 2.26552802e-004,
          1.46221439e-003, 2.31978041e-003, -9.16113844e-004,
          2.97624781e-003, 5.67226391e-003, 9.35248379e-003,
          1.11545552e-003, 1.01192098e-003, 3.20461206e-003,
          8.17887019e-004, -2.81441637e-004, -1.84139365e-003,
          1.71463098e-003, -1.79503439e-003, -4.95428313e-003,
          -5.52190514e-003, -4.73680208e-003, 9.14140837e-004,
          -3.40329576e-003, -2.45551043e-003, -6.55736635e-003,
          -3.29833315e-003, -2.38448335e-003, 1.41422031e-003,
          -6.17714319e-003, 1.17851610e-004, 1.78230309e-003,
          -2.61093467e-003, -3.26771149e-003, -3.02734459e-003,
          7.00683985e-003, 7.31915468e-003, 9.24519729e-003,
          2.39770184e-003, 2.57574930e-003, 5.87458117e-003,
          3.78494291e-003, -2.36536842e-003, 1.18859415e-003,
          1.05485516e-002, 6.70554535e-003, 3.64652649e-003,
          -4.08962741e-003, -4.07374557e-003, 3.49915423e-003,
          -4.10216441e-003, -2.82671838e-003, -8.90511461e-003,
          -3.43552069e-003, 4.30637956e-005, 3.19489744e-003,
          -5.24319615e-003, 2.98311748e-003, 1.97127787e-003,
          -5.20648481e-003, -3.43159959e-003, -4.29788977e-003,
          -8.98066035e-004, 2.73399311e-003, -6.09571056e-004,
          -7.77795725e-003, -3.96037661e-003, -1.39934360e-003,
          4.13998216e-003, -1.07428792e-003, 1.27033982e-003,
          1.22076990e-002, 9.01423767e-003, 3.16434028e-003,
          -5.32176020e-003, -6.31048484e-003, 3.79844126e-003,
          3.61406989e-003, -3.00034182e-003, -1.00354350e-003,
          9.09333490e-003, 4.21014475e-003, 4.20487346e-003,
          -3.68628697e-003, -5.33687091e-003, 1.70089968e-003,
          -9.20487510e-004, -4.90274699e-003, -1.40807370e-003,
          7.47022824e-003, 4.92367335e-003, 3.74202314e-003,
          -9.94498562e-003, -7.03746220e-003, 3.93703394e-003,
          -1.84585442e-004, -4.32994822e-003, 9.28496156e-005,
          6.99458458e-003, -1.12937414e-004, 4.49879281e-003,
          -6.50022458e-003, -5.34494827e-003, 3.31187644e-003,
          -3.42603237e-003, -3.52575118e-003, -3.71185690e-003,
          8.59537744e-004, 9.32145119e-003, 8.25471710e-003,
          -3.21667781e-003, -7.94092659e-003, -6.08664239e-003,
          2.01363931e-003, -2.40579736e-003, -5.39867161e-003,
          1.12644467e-003, 1.45932962e-003, 5.59682213e-003,
          -2.12974218e-003, -7.18295807e-003, -3.54031008e-003,
          -6.45940984e-003, 5.43188304e-004, 8.59978842e-004,
          6.74130255e-003, 6.15827320e-003, 8.42791609e-003,
          -1.55605795e-003, -3.39991151e-004, -3.43718147e-003,
          -3.04807979e-003, 1.97541364e-003, -4.01145732e-003,
          -1.82318455e-003, 7.93039682e-004, 3.96098290e-003,
          -2.77674268e-003, -3.11130192e-003, -1.03627727e-003,
          4.52985801e-003, -6.03332603e-003, -1.08992513e-002,
          -3.93178407e-003, -3.31069459e-003, 3.73187056e-003,
          3.23767378e-003, 2.69389269e-003, 7.22920580e-004,
          -5.38775748e-005, -5.68060530e-003, -1.35233859e-002,
          -4.20860108e-003, -2.92363181e-003, 5.92296198e-003,
          7.31690973e-003, 6.37312001e-003, 4.64078184e-004,
          1.44101644e-003, 8.36990585e-005, -2.78933672e-003,
          -7.18903355e-003, -1.80367578e-003, 1.43818848e-003,
          -2.95355869e-003, -2.07330589e-003, 2.60870042e-003,
          -9.94196162e-004, -1.38912885e-003, -2.13911966e-003,
          -2.97360658e-003, -2.80250143e-003, 2.61198869e-003,
          2.61392654e-003, -7.38293573e-004, 4.13178373e-003,
          6.16075977e-006, -1.74105819e-003, -4.04517772e-003,
          4.35677404e-003, 1.75526447e-003, 5.34472149e-003,
          3.44805396e-003, -1.23457657e-003, 1.74561772e-003,
          -7.57631671e-004, -2.08983989e-003, -2.03495496e-003,
          1.82550203e-003, -3.15179210e-003, 5.27648845e-005,
          5.74947102e-004, -5.22588787e-004, 3.19631095e-003,
          -2.37268410e-004, -1.06089610e-004, -2.21096794e-004,
          6.81836065e-003, -3.91129666e-004, 2.72049638e-003,
          4.22227988e-003, -2.39383499e-003, 2.86834128e-003,
          -4.15158551e-003, -3.74252745e-003, -3.98999546e-003,
          2.40648515e-003, -5.82949119e-003, -9.00377578e-004,
          3.34253273e-004, -2.56134663e-003, 8.00944399e-004,
          1.99748157e-003, 2.85623292e-003, 3.66460858e-003,
          3.42518045e-003, 1.64203797e-004, 1.00708741e-003,
          -2.17583310e-003, -6.50885457e-004, 7.55088171e-003,
          2.33830791e-003, 9.42719262e-003, 5.66397142e-003,
          4.04070457e-003, -1.51793729e-003, 2.24077748e-003,
          -1.05626630e-002, -3.81296384e-003, 3.96702159e-003,
          -4.23065480e-003, -2.41969526e-003, -5.66987670e-004,
          2.14691786e-003, -2.16951198e-003, 4.14367300e-003,
          -3.52479052e-003, -2.52583530e-003, -7.24966114e-004,
          -5.33746881e-003, -1.34626077e-003, -2.40139710e-003,
          1.51032058e-003, -3.16137914e-003, 1.11319637e-003,
          -7.86667131e-003, -5.05391089e-003, -6.23932341e-004,
          2.92296201e-004, 5.00584720e-003, 3.81812872e-003,
          4.81945043e-003, 3.15142004e-003, 1.07306254e-003,
          -5.18915290e-003, -7.66280107e-004, 1.94014749e-003,
          -1.60610059e-003, -1.05097797e-003, -1.86163571e-003,
          4.61945031e-003, 5.42053767e-003, 4.08360129e-003,
          -3.16286896e-005, -2.66262068e-004, -1.10706117e-003,
          -4.31730691e-003, 2.45591998e-003, -8.12145299e-004,
          5.36749139e-003, -1.16911790e-004, 8.63348134e-004,
          -4.82980954e-003, -3.00452113e-003, -3.37019539e-003,
          5.86923445e-004, 3.03983199e-003, 1.26061814e-005,
          2.53865123e-003, -1.15370669e-003, 1.63124129e-003,
          -7.57168455e-004, -5.08654024e-003, -7.55609130e-004,
          -4.15291026e-004, 7.13936053e-004, -3.48770944e-003,
          -1.58048014e-003, 3.65658663e-003, 7.13939266e-003,
          7.34986272e-004, -2.53243954e-003, -3.02756811e-003,
          5.98254008e-003, 7.82791991e-003, 8.86872120e-004,
          -2.13004113e-003, -2.67459522e-003, 2.82165781e-003,
          -6.74248295e-005, -2.91502709e-003, -1.57499267e-003,
          -4.30270098e-004, 1.17840397e-003, -8.48152267e-004,
          -1.15478830e-003, 1.97941577e-003, 1.04147121e-002,
          -7.13520392e-004, -8.39879271e-003, -1.57693564e-003,
          -2.60876655e-003, 5.14885085e-003, 3.10382503e-003,
          2.83600041e-003, -2.29634484e-003, 7.00631458e-003,
          -1.78358774e-003, -1.75519218e-003, -5.34756109e-004,
          6.65556919e-003, 4.56545316e-003, 1.53776864e-003,
          -8.94089346e-004, -5.26860263e-003, -1.08971121e-003,
          1.18483056e-003, -4.64158569e-004, -2.31062644e-003,
          -2.25912913e-006, 2.51060468e-003, -1.54179754e-004,
          2.57696491e-003, -2.90312711e-003, 5.78052597e-003,
          2.79846648e-003, 3.54280742e-003, -2.43536080e-003,
          -4.65188641e-003, -1.73254521e-003, -1.32432021e-003,
          6.23703760e-004, -4.24113544e-003, -2.43536197e-003,
          -1.19066541e-003, 2.26108963e-003, 2.08318373e-003,
          -6.30106637e-003, -3.11385235e-003, -1.21200818e-003,
          2.00277846e-003, -5.00144018e-003, -1.03596260e-003,
          2.61983415e-003, 1.83804706e-003, -2.43819319e-003,
          -1.01479120e-003, 1.39688142e-004, -1.62759342e-003,
          -1.37752516e-003, -7.62681739e-005, 5.19050797e-003,
          5.83597040e-003, 4.00247052e-003, 5.04145771e-003,
          -1.00732339e-003, -3.20335734e-003, -3.03462963e-003,
          -6.05259696e-003, -1.91665953e-003, -4.84570453e-004,
          2.66065355e-003, 3.00627295e-003, 2.52491655e-003,
          -2.26673065e-003, 5.35183307e-003, -6.35341450e-004,
          1.05054816e-003, -1.91966290e-004, 4.66335798e-003,
          6.28950587e-003, 1.39667839e-003, 1.10765954e-003,
          -3.46641475e-003, 7.97181448e-004, -4.51200502e-003,
          -5.33216959e-003, -5.15479548e-003, -2.68697762e-003,
          3.14079365e-003, 3.29551008e-003, 6.83464867e-004,
          7.75812427e-004, -1.06836983e-003, 8.08401441e-004,
          -8.36068764e-004, 6.95907453e-004, 1.54207926e-004,
          -2.92347302e-003, -1.16263621e-003, 5.19248284e-003,
          -3.22015048e-003, 1.37940235e-003, 6.80181151e-003,
          3.66631779e-003, 2.48613441e-003, 3.09149153e-003,
          -1.41529774e-003, -2.05160864e-003, 5.62063372e-003,
          -2.24341080e-003, -3.71414912e-003, -6.07550237e-003,
          -6.20913180e-003, -7.99816661e-003, -2.43346952e-003,
          -4.04624501e-003, -2.61940318e-003, 5.06181922e-003,
          -1.45110185e-003, -1.59399782e-003, 4.59727162e-005,
          1.12533499e-003, -7.98425265e-003, -1.06807747e-004,
          -5.61351934e-003, -1.20529160e-003, 2.44885567e-003,
          -2.00996874e-003, -9.06681118e-004, -1.11371581e-003,
          -1.52887602e-003, 4.40647447e-004, 2.36408995e-003,
          -5.20533184e-004, 4.12772410e-003, -8.02687311e-004,
          -4.74609993e-003, 2.07776646e-003, 2.89698155e-003,
          5.18273655e-003, 4.47834784e-004, -4.65820282e-004,
          -5.13858162e-003, 4.08236077e-003, -3.14074010e-003,
          7.72159779e-004, 1.91430503e-003, -7.42621138e-004,
          -6.41928855e-005, -7.44680222e-003, -5.19132358e-004,
          -2.27693655e-003, 2.90378550e-004, -1.52283558e-003,
          -3.32422811e-003, -2.87956162e-003, -1.54821761e-003,
          -2.36838218e-003, -4.28900821e-003, 1.97137077e-003,
          1.95236912e-003, 2.90575949e-003, -1.35068188e-003,
          -6.08128309e-003, -1.24555023e-003, -2.29690282e-004,
          5.57784736e-003, 5.07732015e-003, -3.05731711e-003,
          -5.81672089e-003, 1.02956407e-003, 1.75837241e-003,
          -2.41062735e-004, -1.32363068e-003, 4.53603570e-004,
          6.84339134e-003, 7.00968271e-003, 4.34238417e-003,
          -6.32349285e-004, 4.94439900e-003, 5.90888830e-003,
          -1.41984539e-003, -7.90339150e-003, -6.08168775e-003,
          1.14189798e-003, -2.98742158e-003, -2.13606074e-003,
          -3.84542602e-003, -6.37180812e-004, -2.11291248e-003,
          7.64667711e-005, -3.24992137e-003, -6.16537919e-003,
          4.34568198e-003, 3.82750062e-003, 1.42469013e-003,
          -1.70815922e-003, -7.24428392e-004, -6.58819699e-005,
          5.70967607e-003, 7.04671431e-004, -2.63337744e-003,
          6.64723199e-003, 4.02034586e-003, 5.05373301e-003,
          -2.58589606e-003, -1.12430949e-003, 6.88950357e-004,
          4.77126613e-003, -1.05213025e-003, -5.40668052e-003,
          4.79086209e-003, 3.12282727e-003, 6.49436191e-003,
          -3.48892668e-003, -6.46460801e-003, -1.06823409e-003,
          -2.45561678e-004, 2.73079117e-004, -5.27851144e-003,
          4.25957609e-003, 3.81517946e-003, 1.19258359e-003,
          5.12434635e-004, -1.67865865e-003, 6.69359579e-004,
          -1.31138926e-003, -3.59666697e-003, -6.08870480e-003,
          -3.17904470e-003, -1.25432372e-004, 3.50178988e-003,
          -6.09492534e-004, -1.00829080e-003, -1.94518303e-003,
          -2.70258402e-003, -3.19209741e-003, -5.18478965e-003,
          1.86635228e-003, 5.89252776e-003, 4.66739433e-003,
          -7.15589384e-003, -7.33877439e-003, 3.62612307e-004,
          1.30162667e-003, -6.05270558e-004, -4.24956030e-004,
          2.35983101e-003, 5.65528264e-003, 6.82339165e-003,
          1.52043111e-004, 4.30474407e-004, 6.89452188e-003,
          -8.31544312e-005, -4.75226715e-003, -7.64629105e-003,
          -5.15070790e-003, 2.28243764e-003, 4.74151410e-003,
          -5.61493449e-003, -6.62157452e-003, 7.33260822e-004,
          9.18366190e-004, 9.92679154e-004, -3.69970570e-003,
          -2.72106845e-003, -1.09690032e-003, 5.13513433e-003,
          1.74829282e-003, -2.57063308e-003, -4.29997628e-004,
          6.26573712e-003, 2.14947062e-003, 2.45889230e-003,
          5.93591435e-003, -1.03653793e-003, 3.17593745e-004,
          -2.56146817e-003, -5.64690726e-003, 3.76911485e-003,
          7.45143741e-003, 2.16917344e-003, 2.89325300e-003,
          9.67836753e-003, -6.39310514e-004, 7.10271765e-004,
          -4.25505731e-003, -6.94098044e-003, 2.51242449e-003,
          6.51793554e-003, 6.02602307e-003, -1.06303592e-003,
          3.85962812e-005, -6.99554384e-003, 1.68294366e-003,
          3.88317392e-003, -2.01354222e-003, -2.48833490e-003,
          2.40969844e-003, 1.99950580e-003, -2.05348316e-003,
          -3.34164564e-004, -1.62234285e-003, -1.86944485e-003,
          6.75193965e-004, -1.66173780e-003, -2.09612143e-003,
          5.11657121e-003, -3.40060302e-004, -3.03025846e-003,
          8.89228843e-003, 3.50715220e-003, 4.72556194e-003,
          -1.96355954e-003, -3.34799034e-003, 1.41777005e-003,
          4.38359845e-003, 1.35767914e-003, -7.05609191e-003,
          7.08780810e-003, 4.28726152e-003, 6.53128885e-003,
          1.03029434e-003, -4.41111071e-004, 4.21943783e-004,
          -2.12188368e-003, -6.46199239e-003, -4.85246163e-003,
          5.69724524e-003, 4.53353673e-003, 3.11220344e-003,
          -1.41211681e-003, 1.77163733e-004, -1.40862714e-003,
          5.83988789e-004, -1.93754490e-003, -4.48816502e-003,
          6.41426258e-003, 2.70882784e-003, 6.81827310e-003,
          -1.35418342e-003, 2.09283829e-003, -1.15360413e-003,
          2.22156639e-003, -1.79121143e-003, -5.39408159e-003,
          2.09176233e-005, 1.65335869e-003, 5.39469998e-003,
          5.98524173e-004, 2.16364773e-004, 2.57622247e-004,
          -2.47169286e-003, 2.96887796e-004, 3.63792456e-003,
          3.64010688e-003, 2.98857153e-003, 6.69823168e-003,
          -4.18846728e-004, -3.85333993e-003, -2.60612206e-003,
          -1.80483283e-003, -3.04541946e-003, -2.86661321e-003,
          4.45965119e-003, 1.67091948e-003, 5.15871076e-003,
          -1.34464935e-003, 6.45069871e-004, 2.00629630e-003,
          -6.77433889e-003, -1.51557312e-003, -2.18741130e-003,
          6.92677731e-003, -1.32283883e-003, 4.55158111e-003,
          1.87735690e-003, -4.41592943e-004, 1.72650965e-003,
          8.13525810e-004, 3.18276370e-003, 3.57568683e-003,
          8.73754453e-003, 5.04488917e-003, 5.51513070e-003,
          -7.71020213e-003, -7.77308177e-003, 1.46473374e-003,
          -1.15119212e-003, -6.66607055e-004, 5.46265437e-005,
          7.84944370e-003, 7.59844342e-003, 5.52744791e-003,
          -5.67818992e-003, -2.10839836e-003, -3.05454433e-003,
          -3.35925282e-003, 3.82407918e-003, 1.25868979e-003,
          3.73906130e-003, -2.59339903e-003, 3.58562917e-004,
          -4.68446827e-003, -7.01634586e-003, 3.17963515e-003,
          -1.67692790e-003, 1.59203471e-003, 5.26031712e-004,
          3.95896565e-003, 2.88794126e-005, -7.68462371e-004,
          -6.50472334e-003, -3.03022773e-003, -2.27458077e-004,
          5.91321848e-004, 1.28833822e-003, 3.29356571e-003,
          1.01603465e-002, 9.13980883e-003, 5.40847844e-003,
          1.74455950e-003, -1.15374314e-004, -1.11934473e-003,
          4.85224416e-003, 2.11003143e-003, 2.96246813e-004,
          6.30805036e-003, 3.03566875e-003, 1.85703998e-003,
          -2.59189459e-004, -2.29857815e-003, -2.37376615e-003,
          -2.75216822e-004, -1.86700863e-003, -1.66046305e-003,
          6.19418174e-003, 2.96099787e-003, 4.68261866e-003,
          -2.44119577e-003, 6.60336955e-005, 9.66994616e-004,
          -9.58473014e-004, -5.10177854e-003, -7.55873322e-003,
          1.17338344e-003, -8.01410293e-004, 3.33668920e-003,
          -4.76280041e-003, -3.76532692e-003, -5.08132484e-003,
          8.81192181e-003, 1.25112315e-003, 3.93435097e-004,
          2.90566240e-003, 2.78911367e-003, -9.83374077e-004,
          1.98175767e-004, 4.12307726e-003, 3.41777899e-003,
          2.63063563e-003, -1.26098155e-003, -4.11424832e-003,
          8.27627198e-004, 6.54681004e-004, 8.58687388e-004,
          -2.28189467e-003, -2.14650281e-004, 2.09484505e-003,
          7.45070167e-003, -1.90492289e-003, -4.68194159e-003,
          -1.02291303e-003, 3.72790126e-003, 1.91982079e-004,
          -5.70236845e-003, 2.55963096e-004, 3.29411915e-003,
          7.98846886e-004, -1.43104303e-003, -5.17544337e-003,
          -1.50838413e-003, -1.40742748e-003, 1.25513319e-003,
          -3.77159822e-003, 5.09725360e-004, 8.75850674e-004,
          -1.26075582e-003, 2.14121724e-003, 3.95112060e-004,
          5.42878034e-003, 2.58515403e-003, 3.33552388e-003,
          -3.07328417e-003, -2.44942820e-003, -1.00027968e-003,
          6.01106789e-004, 4.93081287e-003, 1.52071333e-003,
          7.34663149e-003, 3.85812880e-003, 5.51362522e-004,
          -2.89366068e-003, -6.74659561e-004, -2.09970330e-003,
          -3.93040758e-003, 6.96544303e-004, -2.23210198e-003,
          5.87120769e-004, 4.64694167e-004, 1.24573195e-003,
          -2.02209759e-003, 3.39810317e-003, -2.85661576e-004,
          2.64125690e-003, 1.81849187e-004, -7.75689201e-004,
          2.83468585e-003, -1.71008392e-003, 9.11511190e-004,
          -2.53654481e-003, 5.59351873e-003, 2.77753826e-003,
          9.50305082e-004, 4.13374929e-003, -1.76280667e-003,
          5.29250316e-003, 4.41818172e-003, 1.15190598e-003,
          -2.52090348e-003, -2.98304250e-003, 4.65396821e-004,
          -1.32050866e-003, -1.42171950e-004, 2.17401641e-004,
          2.68495828e-003, 2.06793811e-005, 3.02523980e-003,
          -5.62667707e-003, -3.98885226e-003, -6.86311338e-004,
          3.00160889e-003, -1.26504386e-003, 4.22991987e-004,
          6.92589814e-003, 4.46837257e-005, 4.02584765e-003,
          8.70571472e-004, 2.93349125e-003, 5.37544722e-003,
          -2.52219895e-003, -3.96785280e-003, 3.58314224e-004,
          2.45187106e-003, -3.45759047e-003, 2.68608169e-003,
          -2.42721313e-003, -2.15405729e-004, 3.04930657e-003,
          -1.12676134e-004, -1.71429897e-003, 3.49312928e-003,
          8.10986757e-003, 1.81270560e-004, 3.75558948e-003,
          -6.12204755e-003, 1.09206478e-003, 2.35982891e-003,
          -2.21778653e-004, -3.73597234e-003, 6.44187559e-004,
          3.03049735e-003, 2.51138001e-003, 4.10357397e-003,
          -3.07748583e-003, 4.01410321e-003, 5.23971533e-003,
          -8.48302443e-004, -3.59478919e-003, 9.26831621e-004,
          2.30619102e-003, -3.95359797e-003, 1.95414969e-003,
          -5.60408831e-003, -4.40211006e-004, 7.43734743e-003,
          -5.11648180e-003, -2.80738855e-003, -1.86368226e-004,
          7.08358653e-004, -1.87092903e-003, 4.53949487e-003,
          -3.57932644e-003, 1.80748024e-003, -4.70404571e-004,
          1.60801783e-003, -1.84247911e-003, -2.87120161e-003,
          1.21685420e-003, 5.36358450e-003, 8.12671438e-004,
          -7.11469119e-003, -5.80409251e-004, 7.39587750e-003,
          -1.11119596e-004, 6.97872078e-004, -1.23262929e-003,
          6.19000429e-003, 2.38556881e-003, 1.08571385e-003,
          -1.11105675e-002, -7.25349505e-003, 4.39360598e-003,
          -4.82018804e-003, -1.81867217e-004, 5.31348342e-004,
          5.38993767e-003, 3.09868040e-003, 5.84596628e-003,
          -6.49432372e-003, 2.47528171e-003, -5.26342192e-004,
          -1.20996253e-003, -9.09098075e-004, -2.71066162e-003,
          3.02870432e-003, 4.87043802e-003, 2.38549034e-003,
          -1.03587238e-002, -1.32163509e-003, 1.59895304e-003,
          1.50056987e-003, -6.62656967e-005, -1.12537923e-003,
          3.64570995e-003, -3.00118467e-003, 1.47772732e-003,
          -8.18877015e-003, -4.35045129e-003, 4.49644867e-003,
          4.48445091e-003, -1.22149091e-003, -4.98016318e-003,
          -3.08330916e-003, 4.58341179e-004, 3.80374445e-003,
          -2.70211836e-003, -2.21723737e-003, 5.77141438e-003,
          -7.31050503e-004, -1.24570739e-003, 3.75935371e-004,
          6.76657818e-003, 4.26281185e-004, 4.61305492e-003,
          -4.52492665e-003, -9.33356816e-004, -2.25931220e-003,
          1.98077713e-003, -8.80697276e-004, -2.10274919e-003,
          -4.30626853e-004, 1.59587711e-003, 7.92950112e-003,
          3.20067257e-003, 1.74386695e-003, 5.66632766e-003,
          -1.89938885e-003, -3.44790309e-003, -3.16766254e-003,
          -3.19868815e-003, 3.96858482e-003, 1.70594070e-003,
          -6.29752933e-004, -5.46219107e-003, 1.95756889e-004,
          2.81334319e-003, -1.35184894e-003, 1.30519771e-003,
          5.24562132e-003, 5.04355738e-003, 4.73837694e-003,
          2.45803804e-003, -2.12211884e-003, -7.38515868e-004,
          -2.76642939e-004, 1.13032677e-003, -1.65610760e-003,
          -2.09314423e-003, 1.48238629e-004, 2.83696479e-003,
          3.81812267e-003, -2.74127070e-003, 4.39032447e-003,
          6.05281629e-003, 4.84100915e-003, 5.54001098e-003,
          6.86315913e-003, 1.90405245e-003, 3.47845093e-003,
          2.96394294e-003, -2.66574323e-003, -1.31227321e-003,
          2.61079986e-003, 5.61437570e-004, -2.97243195e-003,
          2.92513962e-003, 4.11796710e-003, 3.23178968e-003,
          1.35210436e-003, -1.07307092e-003, -2.50783330e-003,
          9.62494989e-004, -9.38406811e-005, -5.61651960e-003,
          8.01300688e-004, 4.46840702e-003, 2.36094906e-003,
          -1.25492399e-003, 3.97641165e-003, -3.95340705e-003,
          5.40944049e-003, 2.72436277e-003, 3.94260092e-003,
          2.80885864e-003, 3.07364017e-003, 2.40673358e-003,
          -9.38226352e-004, -2.06478639e-003, -3.98341287e-003,
          2.71396688e-003, -1.54118449e-003, -2.46944232e-003,
          -2.16677831e-003, 2.22204160e-003, 9.13410971e-004,
          -9.69599059e-004, 3.81472707e-003, -1.45807851e-003,
          -1.68851274e-003, -1.51704322e-003, -3.95817403e-003,
          2.79014837e-003, 4.35198564e-003, 2.25998345e-003,
          -2.91814702e-003, 1.75536284e-003, -3.00011627e-004,
          -3.15818819e-003, -9.47372930e-004, -7.17215997e-004,
          6.16406277e-003, 4.03387798e-003, 3.90226999e-003,
          -4.51498991e-003, -1.70699984e-003, -3.21440166e-003,
          -2.03235308e-004, 1.27836829e-003, -7.87449826e-004,
          4.74280538e-003, 4.57322970e-003, 2.06177030e-003,
          -4.84765694e-003, 4.43455530e-003, 4.14150907e-003,
          -2.41461326e-003, -6.72017364e-003, -1.71657256e-003,
          4.61934600e-003, 1.89765380e-003, 3.61083494e-003,
          -3.01362877e-003, 7.02955853e-003, 9.95726557e-004,
          -3.36383167e-003, -2.89665069e-003, -1.35722349e-003,
          3.29280342e-003, 3.56462761e-003, 2.40633544e-003,
          -3.46385501e-003, 5.28834971e-005, 3.82379047e-003,
          -4.33003006e-004, -1.30432716e-003, 1.77344854e-003,
          2.20479723e-003, 1.11079705e-003, 4.38018562e-003,
          2.82187969e-003, -5.56621468e-004, 5.06780716e-003,
          -1.98291009e-003, -5.50426077e-003, -3.45501420e-003,
          4.11087135e-003, 3.12512182e-003, 2.32501631e-003,
          -2.80176802e-003, 2.72692624e-003, 4.43297997e-003,
          6.28889422e-004, 2.24499777e-003, 4.27117944e-003,
          3.70130106e-003, -1.73081004e-003, 7.22866738e-004,
          -5.91613771e-003, 2.11919053e-003, 9.01744515e-003,
          -9.25101282e-004, -2.28602136e-003, 6.47082226e-004,
          9.01197782e-004, 9.21224011e-004, 5.02067339e-003,
          1.83247938e-003, 1.72087888e-003, 4.38459264e-003,
          2.00603716e-003, 1.53106661e-003, -6.72783994e-004,
          3.91040184e-003, 9.92378569e-004, 2.03332631e-003,
          8.57388804e-005, 3.33505537e-004, 2.77877925e-003,
          -2.92007020e-003, 4.74086992e-004, 4.47524758e-003,
          3.34032113e-003, 8.64403773e-005, -7.41297146e-004,
          -6.04660530e-003, 1.76480680e-003, 2.94365129e-003,
          -1.42175285e-003, 6.98906253e-004, -2.02838867e-003,
          -1.22046789e-004, 1.97151816e-003, -2.35369359e-003,
          -5.20755397e-003, -5.50979516e-004, -5.37280284e-004,
          4.91413113e-004, -7.54243752e-004, 1.72518077e-003,
          2.23678607e-003, 6.72820723e-004, 2.10095546e-003,
          3.69967893e-003, 8.93448887e-004, 9.03012231e-004,
          -2.77162949e-003, -1.98415807e-003, 8.05800722e-004,
          9.68946086e-004, 2.73274700e-003, 2.33629299e-003,
          4.46872273e-003, 4.36581066e-003, 2.12169229e-003,
          -1.33606722e-003, 2.93285633e-003, -1.76149851e-003,
          8.99173028e-005, -2.42902478e-003, -1.02032197e-003,
          1.39523449e-003, 4.38848598e-004, 1.46048213e-003,
          -1.29252236e-004, -1.06388261e-003, -4.16930765e-003,
          -3.41768540e-003, -3.54740722e-003, -2.59041926e-003,
          3.41218197e-006, 2.31862790e-003, 3.50399525e-003,
          -1.43799547e-003, -1.27492112e-003, -2.54073704e-004,
          4.42944374e-003, 7.75158824e-003, 2.13602697e-003,
          -2.19032355e-003, 3.21944384e-003, 6.85006287e-003,
          -3.56706674e-003, 1.65277789e-003, 7.60655268e-004,
          3.31578916e-003, 4.84463153e-003, 1.82426977e-003,
          -2.13426421e-003, -3.59000615e-003, 1.88258791e-003,
          1.80836687e-005, -3.26985982e-003, 6.55241718e-004,
          3.35042388e-003, 3.04596103e-003, -9.45324195e-004,
          -8.46145488e-003, 1.76351878e-003, 3.86181846e-003,
          8.41736473e-005, -7.03581201e-004, 5.61647059e-004,
          2.94238306e-003, 2.18731165e-003, -4.73517273e-003,
          -1.14232088e-002, -2.65810895e-003, 4.75429418e-003,
          -6.67132845e-004, 1.45154505e-003, 2.95813219e-003,
          2.10010307e-003, 4.48316475e-003, 3.33637261e-004,
          -2.70135305e-003, -1.49140484e-003, 4.92493622e-003,
          -1.56541995e-003, 1.81691523e-003, 4.59397491e-003,
          2.35310150e-003, 2.17220606e-003, -8.83476023e-005,
          -3.29179061e-003, -3.02784698e-004, -6.95209601e-004,
          2.96598021e-003, -2.15861760e-003, -2.80822907e-003,
          7.16416340e-004, 6.00331603e-003, -3.96441482e-003,
          -8.27836059e-003, -7.64266297e-004, 5.33284526e-003,
          1.69243105e-003, -2.19622650e-003, 1.56787469e-003,
          -1.05553900e-003, 4.07444575e-004, -2.29756162e-003,
          -5.89910522e-003, -2.79306085e-003, 3.25513980e-003,
          -3.66047048e-003, 1.23595889e-003, 4.60001035e-003,
          7.30562396e-003, 2.56129331e-003, 6.88680075e-003,
          3.71988950e-004, -9.38325655e-004, -6.33607560e-004,
          1.35946099e-003, -4.20520175e-003, -5.98877203e-003,
          4.82981792e-003, 1.37327902e-003, 8.15978460e-003,
          -3.97432921e-003, -2.10979022e-003, 1.53159810e-004,
          -2.19061645e-003, -2.61631003e-003, 5.07500488e-003,
          4.77413461e-003, 6.49485458e-003, 5.18464344e-003,
          -6.04164880e-003, -6.36733230e-003, 4.20378579e-004,
          -4.03532351e-004, -4.35602618e-003, -8.21003038e-003,
          1.09299424e-003, 5.20792324e-003, 4.90340777e-003,
          -2.92801834e-003, -5.43540064e-003, -8.12618062e-004,
          4.96603129e-003, -5.02440846e-004, -4.89528291e-003,
          5.82403038e-003, 5.00408141e-003, 1.44731265e-003,
          -4.81281616e-003, 3.43213760e-004, 3.39883659e-003,
          -1.49851339e-003, -2.45174568e-004, -4.20607580e-003,
          5.45956939e-003, 5.92382811e-003, 5.02445328e-004,
          -4.32309369e-003, -5.40348177e-004, -2.05490342e-003,
          1.77883974e-003, 6.34420372e-004, -4.82127536e-003,
          1.48828479e-003, 3.04865325e-003, 2.62885005e-003,
          8.17184569e-004, 1.74638961e-004, 1.82581192e-003,
          -1.19394623e-003, 3.61112674e-004, -5.54231554e-003,
          2.45122123e-003, -7.23604637e-004, 5.78442297e-004,
          -5.51527832e-003, -4.65633115e-003, -1.61212520e-003,
          1.73985388e-003, -1.18892826e-003, -2.07906612e-003,
          4.53052996e-003, 6.39383774e-003, 1.01019861e-003,
          -4.70761489e-003, 1.93185871e-004, 1.10006600e-003,
          7.08250981e-003, 2.73605250e-003, -5.32734627e-003,
          1.25109323e-003, 5.18419023e-004, 2.62961769e-003,
          -7.01910956e-003, 2.70415563e-004, 1.93966704e-003,
          1.73241133e-004, -3.18153412e-004, -1.06246665e-003,
          3.72680835e-003, 2.15188062e-004, -2.19199690e-003,
          -2.74532079e-003, -4.93292138e-003, 3.85303050e-003,
          2.30884808e-003, 1.37511466e-003, 1.04370608e-003,
          2.85648624e-003, -2.98342272e-003, -4.19442961e-003,
          -6.16154261e-003, -5.11489529e-003, 1.08103466e-003,
          7.74608459e-003, 4.29897103e-003, -5.70870424e-003,
          3.38545232e-003, 2.13529239e-003, 3.25016840e-003,
          -7.71807553e-003, -1.88757724e-003, 1.37781352e-003,
          6.81933889e-004, 2.13141460e-003, -9.29791247e-004,
          5.08244336e-003, -6.82089594e-004, 5.68795891e-004,
          -2.59741605e-003, -2.54685897e-003, 2.59278785e-003,
          1.79674025e-005, -1.27037568e-003, -4.30100830e-003,
          8.56204832e-004, -5.99618070e-004, 8.07373071e-005,
          -6.63917884e-003, -5.94583200e-003, -9.80006880e-004,
          4.36201692e-003, -6.88255066e-004, -8.69192928e-003,
          -4.96354466e-003, -4.08250745e-003, 2.13656621e-003,
          -1.40765763e-003, -6.88075088e-004, -1.08393388e-005,
          2.99121323e-003, 1.33992685e-003, 1.00564270e-003,
          4.40567685e-003, -3.89259285e-003, -3.68410465e-003,
          -2.61539803e-003, -2.07420671e-003, 5.19988919e-003,
          -3.44207860e-004, 2.78370711e-003, 1.30504963e-003,
          1.88090501e-003, 3.56812845e-004, -3.43698543e-004,
          -6.61969557e-003, -5.11439517e-004, 4.69843717e-003,
          5.31750824e-003, -1.36344135e-003, -4.35974915e-003,
          -2.51388876e-003, -5.43548213e-003, 1.62237568e-003,
          1.60574086e-003, 2.42592674e-003, 2.86617200e-003,
          8.22416798e-004, -8.67600436e-004, -3.49114160e-003,
          1.37182666e-004, -4.64699202e-004, -1.51839573e-003,
          -8.77677370e-003, -3.22512886e-003, 2.41183396e-003,
          9.06553236e-004, 4.45385883e-003, -1.13505672e-003,
          1.52560533e-003, 9.94372880e-004, 9.62221879e-004,
          -5.92362508e-003, 1.97906257e-003, 6.06630603e-003,
          -1.98895345e-003, 4.61300806e-004, -1.03514420e-003,
          1.41035812e-003, 4.48251422e-003, -1.15561721e-004,
          -4.89158742e-003, -2.55179126e-003, -3.54611897e-004,
          2.09670374e-003, 2.23514647e-003, -3.90587631e-003,
          3.56399105e-003, 4.28764382e-003, -1.35363778e-003,
          -1.06902281e-002, -7.78216112e-004, 2.91669765e-003,
          -7.20568700e-004, 4.92361374e-004, -6.22774661e-003,
          5.65817405e-004, 2.91344151e-003, -3.78595013e-003,
          -3.81513080e-003, -3.52254836e-003, 6.68507128e-004,
          -1.66292815e-003, -3.61220143e-003, 4.83481126e-004,
          2.74381507e-003, 5.69492765e-003, 2.80393055e-003,
          -8.21181480e-003, -3.44336987e-003, 3.15204816e-004,
          -9.27175512e-004, -6.60870748e-004, 1.16681552e-003,
          7.07675237e-003, 7.76048284e-003, 9.61270276e-003,
          6.56949633e-005, -1.00226665e-003, 2.40204204e-003,
          -1.15503033e-003, -3.96785978e-003, -9.76327993e-003,
          -1.43635413e-003, 1.69962307e-003, -6.45008462e-004,
          -2.58346135e-003, -1.92198833e-003, -1.44608994e-003,
          -1.05154817e-003, -8.66376577e-005, -6.60478370e-003,
          2.46561877e-003, 5.87137230e-003, 8.97282641e-003,
          -8.61225242e-004, 3.38355848e-003, -3.66714870e-004,
          -7.39707844e-003, 2.10713071e-004, 2.14220770e-003,
          4.90613841e-003, 4.73508146e-003, 4.02162643e-003,
          -4.21705423e-003, -6.65793095e-006, -5.60801057e-003,
          -4.95445309e-003, -1.20057251e-004, -1.04316848e-003,
          -3.15746147e-004, 4.76624398e-003, 3.93550936e-003,
          -2.71620438e-003, -2.34486209e-003, -3.67490016e-003,
          -4.24163835e-003, -6.41166978e-003, -4.57496848e-003,
          3.50449397e-003, 7.76080880e-003, 4.48596291e-003,
          -4.64080507e-003, -3.25312634e-004, -1.30009290e-003,
          -4.46238415e-003, -5.53572783e-003, -4.18885797e-003,
          1.37563620e-003, 3.97494808e-003, 6.34305004e-004,
          -3.50746186e-003, -1.59027090e-003, -2.88412045e-003,
          -4.53697896e-004, 1.09686540e-003, -1.91888994e-005,
          1.75217912e-003, 4.80679283e-003, 2.48268456e-003,
          -3.69141297e-003, -3.68820294e-003, -2.38955510e-003,
          -1.20775250e-003, 7.68235011e-004, 2.23740540e-003,
          2.18671397e-003, -7.13008558e-005, -9.34902811e-004,
          -2.60812021e-003, -6.43004570e-003, -5.66139771e-003,
          -9.27082670e-004, -1.60095829e-003, -5.95327746e-003,
          4.59740683e-003, 8.02238937e-003, 3.86447664e-006,
          7.70977058e-004, 4.56626498e-004, -2.82573368e-004,
          -5.09196008e-003, -1.50727190e-003, -1.24768098e-003,
          4.76623606e-003, -3.90335917e-003, -6.15267921e-003,
          -2.97243288e-003, -3.31736449e-003, -1.11071523e-002,
          4.40861238e-003, 6.19368628e-003, 3.49229714e-003,
          5.85911004e-003, 3.00187268e-003, 3.56905162e-003,
          1.51393947e-003, 2.80385464e-003, -3.24681110e-004,
          -1.80319429e-003, 2.24933284e-003, -2.98060291e-003,
          -1.56156986e-003, -3.61196301e-003, -1.55112694e-003,
          2.29368475e-003, 4.41634515e-003, -1.03223079e-003,
          1.25049078e-003, 2.15247809e-003, -3.88905522e-003,
          2.20167078e-003, -1.35511137e-003, 1.84306793e-003,
          -1.18869776e-003, 9.09281836e-004, -9.29589104e-003,
          -1.67771161e-003, -7.33088411e-004, -8.99888575e-003,
          -5.93800098e-003, -6.99046906e-003, -3.81554919e-003,
          -4.90084942e-003, 5.04630036e-004, -8.45818128e-003,
          -3.60753504e-003, -3.73890600e-003, -3.85553553e-003,
          5.97557111e-004, -1.75048667e-003, 3.98330158e-003,
          2.43711099e-003, 1.57033408e-003, -1.51598989e-003,
          -1.99490599e-003, -4.10572067e-003, 2.91749020e-003,
          6.28398079e-003, 9.90975997e-004, 1.20932842e-003,
          1.50448352e-003, 1.21910521e-003, -2.37292121e-003,
          -2.21050507e-003, -3.65599245e-003, -3.36738466e-003,
          5.51584351e-004, -3.49878403e-003, -2.28159246e-003,
          -2.47345492e-003, -7.55907444e-004, -7.37045985e-003,
          -3.27163871e-004, -1.76671718e-003, 2.36556772e-003,
          5.41239884e-003, -1.59818097e-003, -1.24170212e-003,
          -1.58653292e-003, -1.42445299e-003, -4.31073876e-003,
          -1.16381783e-003, -1.87366176e-003, -1.10006018e-003,
          4.23014117e-003, -2.00280163e-004, 4.77307738e-004,
          1.34897127e-003, -3.00874515e-003, -3.32636479e-003,
          8.38538690e-004, -7.48955761e-004, -1.83072488e-003,
          2.15553003e-003, 2.24162079e-003, 5.31675760e-003,
          1.13301940e-004, -8.76212120e-003, -4.67615714e-003,
          2.02346104e-003, -2.20506336e-003, -2.78457231e-003,
          4.72665345e-003, 1.31617114e-003, 2.61214050e-003,
          -2.19565583e-003, -4.96897800e-003, -2.61510117e-003,
          -2.93398323e-003, -5.42550301e-003, -5.60838915e-003,
          4.69897268e-003, 2.23646080e-003, 4.50234022e-003,
          -3.65351746e-003, -5.31166932e-003, -4.66597779e-003,
          -7.63724966e-004, 4.30032116e-004, -2.52648909e-003,
          1.22996350e-003, 4.08091489e-003, 8.67709517e-003,
          -1.15366513e-003, -5.17051434e-003, -1.54764636e-003,
          -3.83207528e-003, 6.70555164e-004, 1.03609276e-003,
          2.41053780e-003, 1.11954898e-004, 4.29876614e-003,
          -3.93041689e-003, 4.33425797e-004, 1.57552364e-003,
          -2.68113799e-003, -3.32102901e-003, -2.12322758e-003,
          6.98804716e-003, 2.22437852e-003, 5.30009437e-003,
          -6.28496474e-003, -5.39052859e-003, -1.61154324e-003,
          7.96414912e-004, -1.59149815e-003, -1.08623260e-003,
          1.95939490e-003, -6.86802156e-003, -2.27980898e-003,
          -4.32488276e-003, -2.74288910e-003, 2.88472837e-003,
          -3.05937440e-003, 9.59479832e-004, 4.22602147e-003,
          6.12414768e-003, -1.46742183e-004, -3.35649442e-004,
          -1.55097130e-003, 1.47352158e-003, 1.50909845e-003,
          -1.91060768e-003, -2.55846884e-003, 1.26948487e-003,
          5.25130471e-003, -1.32015918e-003, -1.32848369e-003,
          1.97287579e-003, 2.36212136e-003, -6.89593217e-005,
          3.80444108e-003, 3.85291735e-003, 1.45447126e-003,
          3.07164853e-003, -5.28086955e-003, -5.34483790e-003,
          -5.35962544e-003, -2.45751487e-003, 1.11043814e-003,
          1.08470107e-004, 5.48969861e-003, 1.83647277e-003,
          2.96456693e-003, -5.16467169e-003, -1.53301563e-003,
          -3.25889233e-003, -5.66534640e-004, -1.21264966e-004,
          -2.04683840e-003, 2.89278687e-003, -2.60387524e-003,
          2.95818225e-003, -2.86473217e-003, 3.17764329e-003,
          4.03996790e-003, 4.49818885e-003, -1.59804150e-003,
          -8.18124320e-003, -5.62085304e-004, -6.13617664e-003,
          1.14272535e-003, -3.38409445e-003, 4.97297151e-003,
          2.37201969e-003, 3.13655636e-003, 1.84992247e-003,
          -5.35842730e-003, 2.73270113e-003, 1.88099383e-003,
          7.29554845e-003, -3.74225248e-003, 4.58170520e-003,
          1.31567928e-003, -4.78044007e-004, -4.16838005e-003,
          -1.15701966e-002, -5.39406948e-003, 2.46489071e-003,
          6.01835223e-003, -1.51199964e-003, 5.15121082e-003,
          1.83831702e-003, 4.68604732e-004, -4.45051165e-003,
          -2.72543333e-003, -6.25480944e-003, -9.04007815e-003,
          -7.96413107e-004, -1.81127762e-004, 3.77954030e-003,
          -2.55224435e-003, -1.88885874e-003, 4.85753594e-003,
          3.69689683e-003, 1.24307815e-003, -2.62807356e-003,
          4.48774314e-003, -5.70003083e-003, 3.53267620e-004,
          -7.39316037e-003, -6.57086552e-004, 2.82253907e-003,
          -2.37976527e-003, -6.94909645e-003, -2.92853545e-003,
          3.94811295e-003, 1.35262765e-003, 4.88299131e-003,
          8.26968579e-004, -2.58639222e-003, 3.99135426e-003,
          1.29225082e-003, 1.78934541e-003, -1.08952983e-003,
          2.99720606e-003, -3.18398303e-003, 4.96199355e-003,
          -2.56768172e-003, -3.96591262e-004, 5.01707569e-003,
          3.34937801e-003, 7.37928553e-003, 3.73992184e-003,
          2.75847339e-003, -7.86333065e-003, 1.58522115e-003,
          -5.13103558e-003, 6.39304169e-004, -3.69568414e-004,
          3.86526925e-004, 2.98167323e-003, 2.84398603e-003,
          2.00268789e-003, -1.55141205e-003, 1.83578418e-003,
          -1.71462481e-003, 2.68825970e-004, -2.85047409e-003,
          2.48283544e-003, 3.40410974e-003, 5.81306778e-003,
          1.32262136e-003, -4.63609351e-003, 1.49686274e-003,
          -3.32080736e-003, -3.15032899e-003, 4.24476340e-004,
          -2.06460059e-003, 5.09395078e-003, 3.54378740e-003,
          -2.34982130e-004, -3.46923363e-003, -3.84193263e-003,
          -6.97755534e-003, -6.63623260e-003, -1.93642394e-004,
          -1.10161433e-003, -1.06293708e-003, -3.24062305e-004,
          1.70858263e-003, -3.08764051e-003, -3.06303776e-003,
          -5.06728049e-003, -4.07539960e-003, -3.72789637e-003,
          1.28326923e-004, 5.84183121e-003, 9.55590149e-005,
          6.59821043e-003, 6.65356033e-003, 4.55201557e-003,
          1.19213166e-003, 8.19288311e-004, -2.34433892e-003,
          -6.85864035e-003, -1.62639492e-003, -3.99861252e-003,
          -1.11654471e-003, -4.31571668e-003, -4.97877505e-003,
          -6.95407530e-003, -8.06882046e-003, -3.19574191e-003,
          -7.27433665e-003, 4.31160937e-004, -3.34891491e-003,
          2.00146739e-003, 2.25205231e-003, -6.91864348e-004,
          -3.24451108e-003, -3.73989972e-003, -7.59306597e-003,
          1.95146387e-003, 1.91979681e-003, -3.07227392e-003,
          3.35036055e-003, 5.84173528e-003, 3.70180840e-003,
          1.68620609e-003, 3.60859022e-003, 8.20883666e-004,
          -2.38545326e-004, -8.38039792e-004, -6.12255698e-003,
          -2.27612304e-003, 1.58287084e-003, 4.10247548e-003,
          2.34800368e-003, 4.25467733e-003, -1.02097576e-003,
          -3.00241099e-003, -7.41348951e-004, -4.14556824e-003,
          1.89871702e-003, -7.44217890e-004, 1.13147544e-003,
          -2.81124469e-003, -2.10260896e-006, -5.24330139e-003,
          3.13555682e-003, -7.58128182e-004, -5.65763982e-003,
          -2.94453668e-004, -5.99668594e-003, -1.25382305e-003,
          -3.25036817e-003, 6.30131736e-003, 1.85884163e-003,
          1.48580433e-003, -2.26893253e-003, -4.06926265e-003,
          -2.73012882e-003, 4.38010367e-003, 6.54675113e-003,
          1.81156024e-003, -1.50321331e-003, 1.68971159e-003,
          4.35432274e-004, 1.40623469e-003, -3.54860071e-003,
          -2.03527394e-004, 2.58672773e-003, 9.97091085e-003,
          3.06120934e-003, -5.63726004e-004, 2.92745593e-004,
          3.46328993e-003, 3.58217920e-004, -1.37471396e-003,
          -2.07680906e-003, -1.91642460e-003, 8.80452048e-004,
          -2.42166547e-003, 4.84070159e-004, 3.97810433e-003,
          -3.58546362e-003, -1.90346676e-003, -5.25729684e-003,
          -1.46368111e-003, 1.20985683e-003, 4.29397495e-003,
          -3.62692703e-003, -3.48082907e-003, -6.20779023e-003,
          3.61785828e-003, 1.29613117e-003, -2.59825820e-003,
          4.99251578e-003, 1.85584743e-003, 7.31699727e-003,
          4.32521570e-003, 1.94586627e-003, 2.04833504e-003,
          3.55968112e-003, 1.13604683e-003, -2.92027881e-003,
          2.01118691e-003, 4.14303364e-003, 3.87184671e-003,
          3.25829908e-003, 3.60874552e-003, 1.71123640e-004,
          4.49019921e-004, -4.02117257e-005, -1.21209910e-003,
          2.60285521e-003, 1.39423111e-003, 5.09724999e-003,
          -5.39967325e-003, -5.69987437e-003, -6.00068271e-003,
          2.28266465e-004, 1.80310133e-004, -2.41276575e-004,
          3.52815143e-003, -1.97694171e-003, 2.10038736e-004,
          -6.94731018e-003, -3.05506377e-003, -4.40471247e-003,
          2.48919916e-003, 1.12843038e-004, -3.21027503e-004,
          3.70763382e-003, 6.36979192e-003, 8.52490496e-003,
          9.06619476e-004, 5.01309521e-004, 3.81092337e-004,
          2.41642306e-003, 5.84090222e-003, 4.39965213e-003,
          8.26082379e-003, 6.70783827e-003, 1.02634020e-002,
          -1.25739968e-003, 6.74778246e-004, 1.04004263e-004,
          -2.23616511e-003, -2.88431090e-003, -2.41718930e-003,
          -1.16103108e-003, -3.56564252e-003, 2.87439470e-004,
          -1.22944324e-003, -5.03628422e-003, -5.89779345e-003,
          -3.74132511e-003, -3.60701373e-003, -4.10044426e-003,
          6.05114154e-004, -8.39945569e-004, 2.32645008e-003,
          2.18013418e-004, -1.32016162e-003, -5.86059876e-004,
          1.24442554e-003, 2.65464140e-003, 3.52477981e-003,
          8.12576991e-003, 6.05363585e-003, 4.18751081e-003,
          -2.93708337e-003, 1.01386441e-003, 3.50450585e-003,
          -3.96076823e-003, 1.26740721e-003, 2.97492486e-003,
          1.25914067e-002, 2.83814245e-003, 5.05878916e-003,
          2.99075851e-003, 2.77975434e-003, 1.93335919e-003,
          -3.58689693e-003, 2.70628952e-005, -5.05321426e-003,
          -5.76836406e-004, -7.68368598e-004, -1.19329139e-003,
          -5.02860267e-003, -1.88674498e-003, 2.22568982e-003,
          -4.13590949e-003, 2.91775516e-003, -7.53744564e-004,
          1.43645448e-003, -1.73014170e-003, -1.75045757e-003,
          -4.90896078e-003, 4.38305462e-004, 1.36639015e-003,
          -3.77654773e-003, 2.26207683e-003, 2.56068422e-004,
          6.81690872e-003, 2.95313448e-003, 3.92433535e-003,
